{"learner":{"attributes":{"best_iteration":"23","best_score":"0.642811165685239","scikit_learn":"{\"_estimator_type\": \"regressor\"}"},"feature_names":[],"feature_types":[],"gradient_booster":{"model":{"cats":{"enc":[],"feature_segments":[],"sorted_idx":[]},"gbtree_model_param":{"num_parallel_tree":"1","num_trees":"74"},"iteration_indptr":[0,1,2,3,4,5,6,7,8,9,10,11,12,13,14,15,16,17,18,19,20,21,22,23,24,25,26,27,28,29,30,31,32,33,34,35,36,37,38,39,40,41,42,43,44,45,46,47,48,49,50,51,52,53,54,55,56,57,58,59,60,61,62,63,64,65,66,67,68,69,70,71,72,73,74],"tree_info":[0,0,0,0,0,0,0,0,0,0,0,0,0,0,0,0,0,0,0,0,0,0,0,0,0,0,0,0,0,0,0,0,0,0,0,0,0,0,0,0,0,0,0,0,0,0,0,0,0,0,0,0,0,0,0,0,0,0,0,0,0,0,0,0,0,0,0,0,0,0,0,0,0,0],"trees":[{"base_weights":[5.5462606E-3,-2.2946445E-2,4.6387905E-1,2.1933373E-2,-2.7020726E-1,2.5821947E-2,1.53452E-1,5.2206916E-1,-1.3473739E-2,-2.3728123E-2,-1.8509161E-1,-1.06122475E-2,4.1817597E-1,1.0720544E-1,7.052981E-1,-1.6348568E-1,9.2949115E-2,4.385245E-2,-3.9678422E-1,1.8249324E-2,8.528915E-4,2.0247892E-2,-1.4619607E-2,2.387381E-2,4.15146E-3,-3.6716294E-1,1.2600763E-1,2.522409E-1,-5.7763264E-2,3.6291358E-1,-3.3720636E-1,-6.313882E-1,-1.8411079E-1,-2.2863464E-2,-8.490795E-3,-2.0195674E-2,7.1153524E-3,2.442004E-2,5.533087E-3,3.494511E-4,-1.5205282E-2,-9.484248E-3,2.099528E-2,3.3314598E-3,-1.34747205E-2,-7.1142474E-3,-2.4683837E-2,6.9790203E-3,-1.5772458E-2],"categories":[],"categories_nodes":[],"categories_segments":[],"categories_sizes":[],"default_left":[0,0,0,0,0,0,0,0,0,0,0,0,0,0,0,0,0,0,0,0,0,0,0,0,0,0,0,0,0,0,0,0,0,0,0,0,0,0,0,0,0,0,0,0,0,0,0,0,0],"id":0,"left_children":[1,3,5,7,9,-1,11,13,15,-1,17,-1,19,21,23,25,27,29,31,-1,-1,-1,-1,-1,-1,33,35,37,39,41,43,45,47,-1,-1,-1,-1,-1,-1,-1,-1,-1,-1,-1,-1,-1,-1,-1,-1],"loss_changes":[4.685817E0,3.7567194E0,2.454988E0,5.089335E0,2.1583629E0,0E0,1.8933882E0,1.3686743E0,4.3097E0,0E0,2.246825E0,0E0,6.4964485E-1,2.691594E0,5.568199E-1,6.650145E0,3.8077145E0,2.918741E0,1.0812113E0,0E0,0E0,0E0,0E0,0E0,0E0,1.9774733E0,4.335491E0,2.7827954E0,2.5619535E0,3.1955645E0,6.0188675E-1,6.349559E-1,2.1155682E0,0E0,0E0,0E0,0E0,0E0,0E0,0E0,0E0,0E0,0E0,0E0,0E0,0E0,0E0,0E0,0E0],"parents":[2147483647,0,0,1,1,2,2,3,3,4,4,6,6,7,7,8,8,10,10,12,12,13,13,14,14,15,15,16,16,17,17,18,18,25,25,26,26,27,27,28,28,29,29,30,30,31,31,32,32],"right_children":[2,4,6,8,10,-1,12,14,16,-1,18,-1,20,22,24,26,28,30,32,-1,-1,-1,-1,-1,-1,34,36,38,40,42,44,46,48,-1,-1,-1,-1,-1,-1,-1,-1,-1,-1,-1,-1,-1,-1,-1,-1],"split_conditions":[3.3929E0,7.34E0,3.39E1,3.32E1,2.043E0,2.5821947E-2,1.14E0,5.12E0,1.26E0,-2.3728123E-2,2.6713E0,-1.06122475E-2,7.55E0,1.31E0,2.9073E0,4.13E0,5.64E0,1.39E0,2.9073E0,1.8249324E-2,8.528915E-4,2.0247892E-2,-1.4619607E-2,2.387381E-2,4.15146E-3,5.71E1,3.73E1,4.82E1,8.42E0,1.07E0,5E-1,2.7974E0,3.0584E0,-2.2863464E-2,-8.490795E-3,-2.0195674E-2,7.1153524E-3,2.442004E-2,5.533087E-3,3.494511E-4,-1.5205282E-2,-9.484248E-3,2.099528E-2,3.3314598E-3,-1.34747205E-2,-7.1142474E-3,-2.4683837E-2,6.9790203E-3,-1.5772458E-2],"split_indices":[8,0,3,3,8,0,2,7,2,0,8,0,0,2,8,7,0,2,8,0,0,0,0,0,0,3,3,3,7,2,7,8,8,0,0,0,0,0,0,0,0,0,0,0,0,0,0,0,0],"split_type":[0,0,0,0,0,0,0,0,0,0,0,0,0,0,0,0,0,0,0,0,0,0,0,0,0,0,0,0,0,0,0,0,0,0,0,0,0,0,0,0,0,0,0,0,0,0,0,0,0],"sum_hessian":[3.57E2,3.37E2,2E1,2.86E2,5.1E1,8E0,1.2E1,1.8E1,2.68E2,6E0,4.5E1,4E0,8E0,6E0,1.2E1,1.11E2,1.57E2,2.2E1,2.3E1,5E0,3E0,3E0,3E0,1E1,2E0,6.5E1,4.6E1,7.6E1,8.1E1,1.2E1,1E1,1E1,1.3E1,1E1,5.5E1,5E0,4.1E1,7E0,6.9E1,7.1E1,1E1,4E0,8E0,2E0,8E0,4E0,6E0,6E0,7E0],"tree_param":{"num_deleted":"0","num_feature":"10","num_nodes":"49","size_leaf_vector":"1"}},{"base_weights":[6.613625E-3,5.8770996E-2,-5.3309584E-1,-3.8879701E-1,8.57519E-2,-6.3783926E-1,2.7098784E-2,-6.133147E-1,3.6251545E-1,2.540961E-1,-1.6035695E-2,-3.4007535E-3,-6.986761E-1,-6.220077E-3,9.919363E-3,-6.064899E-3,-7.444458E-1,1.8250795E-2,-1.2502373E-4,1.3937368E-2,4.128781E-1,-1.6184849E-1,1.3142861E-1,-2.2129026E-1,-2.3492662E-2,-1.2969653E-2,-2.5831264E-2,1.2837225E-1,-6.74663E-1,1.453227E-1,5.5512947E-1,-5.0382406E-1,1.6772985E-2,2.6879163E-2,3.9184228E-1,5.2515557E-3,-1.631607E-2,1.2553594E-2,-4.6307473E-3,-7.0087244E-3,-2.413061E-2,-3.445274E-3,2.603674E-2,2.7364988E-2,9.431341E-3,-1.8321669E-2,-4.17079E-3,9.6085975E-3,-5.283245E-3,6.1017326E-3,-6.6340053E-3,1.597426E-2,-7.8899635E-4],"categories":[],"categories_nodes":[],"categories_segments":[],"categories_sizes":[],"default_left":[0,0,0,0,0,0,0,0,0,0,0,0,0,0,0,0,0,0,0,0,0,0,0,0,0,0,0,0,0,0,0,0,0,0,0,0,0,0,0,0,0,0,0,0,0,0,0,0,0,0,0,0,0],"id":1,"left_children":[1,3,5,7,9,11,13,15,17,19,21,-1,23,-1,-1,-1,25,-1,-1,27,29,31,33,35,-1,-1,-1,37,39,41,43,45,47,49,51,-1,-1,-1,-1,-1,-1,-1,-1,-1,-1,-1,-1,-1,-1,-1,-1,-1,-1],"loss_changes":[1.0221568E1,4.0304255E0,1.8949385E0,3.4273121E0,5.3674393E0,7.8230953E-1,4.9552587E-1,6.582217E-1,4.5327014E-1,4.4939265E0,4.235699E0,0E0,7.938471E-1,0E0,0E0,0E0,2.8069973E-2,0E0,0E0,3.8690035E0,2.6215954E0,6.0557847E0,2.657626E0,7.3446286E-1,0E0,0E0,0E0,3.50921E0,2.1247411E-1,4.9873376E0,3.667262E0,1.2409658E0,3.9201806E0,3.1531577E0,1.6605339E0,0E0,0E0,0E0,0E0,0E0,0E0,0E0,0E0,0E0,0E0,0E0,0E0,0E0,0E0,0E0,0E0,0E0,0E0],"parents":[2147483647,0,0,1,1,2,2,3,3,4,4,5,5,6,6,7,7,8,8,9,9,10,10,12,12,16,16,19,19,20,20,21,21,22,22,23,23,27,27,28,28,29,29,30,30,31,31,32,32,33,33,34,34],"right_children":[2,4,6,8,10,12,14,16,18,20,22,-1,24,-1,-1,-1,26,-1,-1,28,30,32,34,36,-1,-1,-1,38,40,42,44,46,48,50,52,-1,-1,-1,-1,-1,-1,-1,-1,-1,-1,-1,-1,-1,-1,-1,-1,-1,-1],"split_conditions":[7.69E0,1.4436E0,3.5002E0,4.2E0,5.68E0,7.2E-1,4.37E0,3.56E0,1.3269E0,2.67E0,5.9583332E1,-3.4007535E-3,1.51E1,-6.220077E-3,9.919363E-3,-6.064899E-3,1.49E0,1.8250795E-2,-1.2502373E-4,8.759843E1,4.79E0,2.3571E0,1.76E0,7.78E0,-2.3492662E-2,-1.2969653E-2,-2.5831264E-2,9.6E-1,4.26E0,1.63E0,6.084656E1,7.1E0,2.71E0,7.6814514E1,3.49E0,5.2515557E-3,-1.631607E-2,1.2553594E-2,-4.6307473E-3,-7.0087244E-3,-2.413061E-2,-3.445274E-3,2.603674E-2,2.7364988E-2,9.431341E-3,-1.8321669E-2,-4.17079E-3,9.6085975E-3,-5.283245E-3,6.1017326E-3,-6.6340053E-3,1.597426E-2,-7.8899635E-4],"split_indices":[0,8,8,7,0,7,7,0,8,7,9,0,6,0,0,0,7,0,0,9,0,8,2,0,0,0,0,7,0,2,9,7,7,9,2,0,0,0,0,0,0,0,0,0,0,0,0,0,0,0,0,0,0],"split_type":[0,0,0,0,0,0,0,0,0,0,0,0,0,0,0,0,0,0,0,0,0,0,0,0,0,0,0,0,0,0,0,0,0,0,0,0,0,0,0,0,0,0,0,0,0,0,0,0,0,0,0,0,0],"sum_hessian":[3.61E2,3.3E2,3.1E1,1.8E1,3.12E2,2.6E1,5E0,1.4E1,4E0,1.17E2,1.95E2,3E0,2.3E1,3E0,2E0,4E0,1E1,2E0,2E0,4.7E1,7E1,9.8E1,9.7E1,4E0,1.9E1,4E0,6E0,4.1E1,6E0,2.5E1,4.5E1,3.3E1,6.5E1,7E1,2.7E1,2E0,2E0,2E1,2.1E1,2E0,4E0,1.9E1,6E0,1.7E1,2.8E1,2.5E1,8E0,2.5E1,4E1,4.1E1,2.9E1,2E1,7E0],"tree_param":{"num_deleted":"0","num_feature":"10","num_nodes":"53","size_leaf_vector":"1"}},{"base_weights":[2.5439072E-2,6.519886E-2,-3.5811773E-1,-3.2773277E-1,9.502421E-2,-4.6918505E-1,1.5317796E-1,-5.09493E-1,1.8646967E-1,-1.7512706E-1,1.263007E-1,-5.9137666E-1,2.3560995E-1,1.4121968E-2,-6.0801245E-3,1.1786978E-2,-6.4684826E-1,-6.900872E-3,1.669053E-2,1.1236605E-1,-5.733224E-1,2.253826E-1,-3.6131667E-3,-3.6270975E-4,-6.412237E-1,-9.701238E-3,2.1481734E-2,-2.8507727E-1,-2.2310464E-2,3.513926E-2,-7.036695E-2,-2.2136856E-2,6.7749515E-4,1.9265833E-1,8.230613E-1,-1.1085988E-1,2.9223725E-1,-4.3480992E-4,-2.1006664E-2,-3.2262623E-3,-1.1027601E-2,3.9994335E-3,-1.8798044E-2,6.6087E-3,-1.5630974E-2,3.426066E-2,6.557852E-3,3.2577242E-3,-9.035298E-3,-2.966116E-3,1.5613067E-2],"categories":[],"categories_nodes":[],"categories_segments":[],"categories_sizes":[],"default_left":[0,0,0,0,0,0,0,0,0,0,0,0,0,0,0,0,0,0,0,0,0,0,0,0,0,0,0,0,0,0,0,0,0,0,0,0,0,0,0,0,0,0,0,0,0,0,0,0,0,0,0],"id":2,"left_children":[1,3,5,7,9,11,13,15,17,19,21,23,25,-1,-1,-1,27,-1,-1,29,31,33,35,-1,37,-1,-1,39,-1,-1,41,-1,-1,43,45,47,49,-1,-1,-1,-1,-1,-1,-1,-1,-1,-1,-1,-1,-1,-1],"loss_changes":[5.68115E0,3.980555E0,2.0594578E0,2.3380826E0,2.675224E0,2.6368146E0,8.8641286E-1,2.4852161E0,1.2063627E0,3.8422098E0,3.6307502E0,7.141409E-1,1.5743698E0,0E0,0E0,0E0,3.4849977E-1,0E0,0E0,3.9524965E0,1.3896413E0,2.9708061E0,3.9350626E0,0E0,8.403015E-1,0E0,0E0,3.37106E-2,0E0,0E0,2.122838E0,0E0,0E0,3.1320095E0,1.2927675E0,3.8333325E0,2.9967098E0,0E0,0E0,0E0,0E0,0E0,0E0,0E0,0E0,0E0,0E0,0E0,0E0,0E0,0E0],"parents":[2147483647,0,0,1,1,2,2,3,3,4,4,5,5,6,6,7,7,8,8,9,9,10,10,11,11,12,12,16,16,19,19,20,20,21,21,22,22,24,24,27,27,30,30,33,33,34,34,35,35,36,36],"right_children":[2,4,6,8,10,12,14,16,18,20,22,24,26,-1,-1,-1,28,-1,-1,30,32,34,36,-1,38,-1,-1,40,-1,-1,42,-1,-1,44,46,48,50,-1,-1,-1,-1,-1,-1,-1,-1,-1,-1,-1,-1,-1,-1],"split_conditions":[7.7E0,2.5515947E1,3.3861E0,7.07E0,1.4994E0,7.6814514E1,6.404887E1,1.5721E0,2.3827E0,1.392E0,6.45E0,2.0550848E1,2.5116E0,1.4121968E-2,-6.0801245E-3,1.1786978E-2,2.1E0,-6.900872E-3,1.669053E-2,6.293578E1,4.77E0,8.89483E1,6.75E0,-3.6270975E-4,9.5E-1,-9.701238E-3,2.1481734E-2,1.9616205E1,-2.2310464E-2,3.513926E-2,4.71E0,-2.2136856E-2,6.7749515E-4,8.759843E1,4.55E0,3.42E0,6.88E0,-4.3480992E-4,-2.1006664E-2,-3.2262623E-3,-1.1027601E-2,3.9994335E-3,-1.8798044E-2,6.6087E-3,-1.5630974E-2,3.426066E-2,6.557852E-3,3.2577242E-3,-9.035298E-3,-2.966116E-3,1.5613067E-2],"split_indices":[0,9,8,0,8,9,9,8,8,8,0,9,8,0,0,0,1,0,0,9,0,9,1,0,1,0,0,9,0,0,0,0,0,9,1,1,0,0,0,0,0,0,0,0,0,0,0,0,0,0,0],"split_type":[0,0,0,0,0,0,0,0,0,0,0,0,0,0,0,0,0,0,0,0,0,0,0,0,0,0,0,0,0,0,0,0,0,0,0,0,0,0,0,0,0,0,0,0,0,0,0,0,0,0,0],"sum_hessian":[3.7E2,3.36E2,3.4E1,2.3E1,3.13E2,2.8E1,6E0,1.7E1,6E0,3.2E1,2.81E2,2.4E1,4E0,3E0,3E0,2E0,1.5E1,3E0,3E0,1.9E1,1.3E1,1.59E2,1.22E2,2E0,2.2E1,2E0,2E0,4E0,1.1E1,2E0,1.7E1,1E1,3E0,1.52E2,7E0,9E1,3.2E1,2E0,2E1,2E0,2E0,1.3E1,4E0,1.47E2,5E0,4E0,3E0,4.2E1,4.8E1,1.2E1,2E1],"tree_param":{"num_deleted":"0","num_feature":"10","num_nodes":"51","size_leaf_vector":"1"}},{"base_weights":[9.856194E-3,2.7123213E-1,-3.615703E-2,4.092074E-1,-2.6255626E-2,7.155996E-2,-2.0821495E-1,1.9222891E-1,6.5166956E-1,-2.3927686E-1,3.7310603E-1,-1.1505521E-1,1.6226396E-1,-9.432959E-2,-5.102514E-1,2.3166278E-2,-1.2990922E-1,7.2231734E-1,6.714689E-3,-4.5964736E-1,9.442998E-2,1.6507069E-2,3.0809962E-3,4.614031E-1,-2.0252192E-1,-1.1321663E-1,2.674272E-1,3.0163528E-2,-3.9515242E-1,-5.814113E-1,-2.813265E-1,3.7192944E-1,-5.057938E-1,3.5658333E-1,2.6085781E-2,-5.433331E-3,-1.7716408E-2,-1.1041344E-2,1.2530358E-2,-3.7374128E-2,2.603699E-2,-6.0034406E-1,-7.425456E-2,-2.0384852E-2,6.0440794E-2,4.901899E-1,-6.783345E-2,-4.6144247E-2,2.9110419E-2,-5.233541E-1,4.590312E-2,-2.2850022E-2,-3.8537666E-1,-1.5019294E-2,3.8118802E-2,1.969509E-3,2.2752546E-2,-7.306512E-3,-1.7889714E-2,-7.6530635E-4,1.662023E-2,-7.4976543E-3,5.628948E-3,-2.4695432E-2,-4.9809352E-3,1.3376682E-2,-5.9630754E-3,8.573444E-3,-9.04156E-3,-1.0311584E-2,1.5764402E-2,-2.1605166E-2,3.5326986E-3,-8.668842E-3,8.37963E-3,-2.043253E-2,-3.3178793E-3,1.6808165E-2,-1.4398252E-2,4.1414273E-4,-1.639289E-2,7.753312E-3,-5.8473726E-3],"categories":[],"categories_nodes":[],"categories_segments":[],"categories_sizes":[],"default_left":[0,0,0,0,0,0,0,0,0,0,0,0,0,0,0,0,0,0,0,0,0,0,0,0,0,0,0,0,0,0,0,0,0,0,0,0,0,0,0,0,0,0,0,0,0,0,0,0,0,0,0,0,0,0,0,0,0,0,0,0,0,0,0,0,0,0,0,0,0,0,0,0,0,0,0,0,0,0,0,0,0,0,0],"id":3,"left_children":[1,3,5,7,9,11,13,15,17,19,21,23,25,27,29,-1,31,33,-1,35,37,-1,-1,39,41,43,45,47,49,51,53,55,57,59,-1,-1,-1,-1,-1,61,-1,63,65,-1,67,69,71,73,-1,75,77,-1,79,-1,81,-1,-1,-1,-1,-1,-1,-1,-1,-1,-1,-1,-1,-1,-1,-1,-1,-1,-1,-1,-1,-1,-1,-1,-1,-1,-1,-1,-1],"loss_changes":[4.5799723E0,2.3503633E0,6.0197744E0,1.9264846E0,1.7056532E0,3.404018E0,4.2515583E0,4.210661E0,3.8240337E-1,9.994134E-1,2.7876943E-1,3.4212246E0,3.9412863E0,3.4573536E0,3.903036E-1,0E0,3.017621E0,4.9753046E-1,0E0,1.8472767E-1,1.0506905E0,0E0,0E0,1.8571984E0,2.9150224E0,3.777931E0,7.352242E0,4.7798357E0,1.5507135E0,5.898819E-1,7.1968067E-1,7.788237E-1,6.8433285E-2,4.6674007E-1,0E0,0E0,0E0,0E0,0E0,2.8601548E-1,0E0,1.2182603E0,3.0030782E0,0E0,2.5321548E0,1.9169159E0,4.9275093E0,4.980483E0,0E0,1.2918677E0,2.162246E0,0E0,9.075949E-1,0E0,3.0708683E-1,0E0,0E0,0E0,0E0,0E0,0E0,0E0,0E0,0E0,0E0,0E0,0E0,0E0,0E0,0E0,0E0,0E0,0E0,0E0,0E0,0E0,0E0,0E0,0E0,0E0,0E0,0E0,0E0],"parents":[2147483647,0,0,1,1,2,2,3,3,4,4,5,5,6,6,7,7,8,8,9,9,10,10,11,11,12,12,13,13,14,14,16,16,17,17,19,19,20,20,23,23,24,24,25,25,26,26,27,27,28,28,29,29,30,30,31,31,32,32,33,33,39,39,41,41,42,42,44,44,45,45,46,46,47,47,49,49,50,50,52,52,54,54],"right_children":[2,4,6,8,10,12,14,16,18,20,22,24,26,28,30,-1,32,34,-1,36,38,-1,-1,40,42,44,46,48,50,52,54,56,58,60,-1,-1,-1,-1,-1,62,-1,64,66,-1,68,70,72,74,-1,76,78,-1,80,-1,82,-1,-1,-1,-1,-1,-1,-1,-1,-1,-1,-1,-1,-1,-1,-1,-1,-1,-1,-1,-1,-1,-1,-1,-1,-1,-1,-1,-1],"split_conditions":[3.48E1,7.54E0,6.46E0,6.91E0,3.3861E0,4.77E0,6.33E0,6.4E0,7.38E0,7.03E0,3.8107E0,1.3673E0,1.89E0,3.85E0,9.55E0,2.3166278E-2,2.5274E0,2.7236E0,6.714689E-3,2.2421E0,7.62E0,1.6507069E-2,3.0809962E-3,1.257E0,1.5244E0,1.902E0,5.75E0,5.36E0,2.9671E0,4.16E0,2.8529E0,6.62E0,5.17E0,8.85E0,2.6085781E-2,-5.433331E-3,-1.7716408E-2,-1.1041344E-2,1.2530358E-2,2.42E0,2.603699E-2,7.7E1,3.57E0,-2.0384852E-2,8.9E-1,3.73E1,5.89E0,2.69E0,2.9110419E-2,3.99E0,3.1696E0,-2.2850022E-2,5.21E0,-1.5019294E-2,7.64E0,1.969509E-3,2.2752546E-2,-7.306512E-3,-1.7889714E-2,-7.6530635E-4,1.662023E-2,-7.4976543E-3,5.628948E-3,-2.4695432E-2,-4.9809352E-3,1.3376682E-2,-5.9630754E-3,8.573444E-3,-9.04156E-3,-1.0311584E-2,1.5764402E-2,-2.1605166E-2,3.5326986E-3,-8.668842E-3,8.37963E-3,-2.043253E-2,-3.3178793E-3,1.6808165E-2,-1.4398252E-2,4.1414273E-4,-1.639289E-2,7.753312E-3,-5.8473726E-3],"split_indices":[3,0,0,0,8,0,7,0,0,7,8,8,7,1,7,0,8,8,0,8,0,0,0,8,8,8,0,7,8,1,8,7,7,7,0,0,0,0,0,7,0,3,0,0,7,3,0,1,0,7,8,0,1,0,0,0,0,0,0,0,0,0,0,0,0,0,0,0,0,0,0,0,0,0,0,0,0,0,0,0,0,0,0],"split_type":[0,0,0,0,0,0,0,0,0,0,0,0,0,0,0,0,0,0,0,0,0,0,0,0,0,0,0,0,0,0,0,0,0,0,0,0,0,0,0,0,0,0,0,0,0,0,0,0,0,0,0,0,0,0,0,0,0,0,0,0,0,0,0,0,0,0,0,0,0,0,0,0,0,0,0,0,0,0,0,0,0,0,0],"sum_hessian":[3.79E2,5.6E1,3.23E2,3.8E1,1.8E1,1.99E2,1.24E2,2.1E1,1.7E1,1.2E1,6E0,6.5E1,1.34E2,9.1E1,3.3E1,7E0,1.4E1,1.4E1,3E0,7E0,5E0,3E0,3E0,8E0,5.7E1,3.7E1,9.7E1,6.5E1,2.6E1,2.4E1,9E0,6E0,8E0,5E0,9E0,3E0,4E0,2E0,3E0,4E0,4E0,1.3E1,4.4E1,8E0,2.9E1,5.8E1,3.9E1,6.1E1,4E0,2E1,6E0,1.1E1,1.3E1,5E0,4E0,4E0,2E0,3E0,5E0,2E0,3E0,2E0,2E0,8E0,5E0,8E0,3.6E1,1.8E1,1.1E1,2E0,5.6E1,8E0,3.1E1,3.5E1,2.6E1,1.4E1,6E0,3E0,3E0,4E0,9E0,2E0,2E0],"tree_param":{"num_deleted":"0","num_feature":"10","num_nodes":"83","size_leaf_vector":"1"}},{"base_weights":[2.7459545E-2,-4.4695842E-1,6.9116674E-2,-5.150899E-1,1.0137652E-2,5.4529525E-2,8.7447745E-1,-2.5273682E-4,-5.5374014E-1,3.4513316E-1,1.0703281E-2,4.332877E-3,3.6101826E-2,-6.433125E-1,-2.7178842E-1,4.2262757E-1,-3.4384862E-1,1.0178316E-1,-1.05877206E-1,-6.986282E-1,-7.836647E-3,-1.018711E-1,-1.5630808E-2,2.548499E-1,7.1601105E-1,-1.8100797E-4,-1.7011423E-2,2.1129501E-1,-5.364341E-2,-2.9700163E-1,8.687609E-2,-8.664886E-3,-2.3129383E-2,-1.0034997E-2,7.26773E-3,1.5886571E-2,-7.952986E-3,2.3476295E-2,6.336364E-3,4.4449223E-3,2.6853185E-2,-3.9222636E-3,1.6517311E-2,-2.1541596E-3,-1.896103E-2,7.044825E-3,-1.0340475E-2],"categories":[],"categories_nodes":[],"categories_segments":[],"categories_sizes":[],"default_left":[0,0,0,0,0,0,0,0,0,0,0,0,0,0,0,0,0,0,0,0,0,0,0,0,0,0,0,0,0,0,0,0,0,0,0,0,0,0,0,0,0,0,0,0,0,0,0],"id":4,"left_children":[1,3,5,7,-1,9,11,-1,13,15,17,-1,-1,19,21,23,25,27,29,31,-1,33,-1,35,37,-1,-1,39,41,43,45,-1,-1,-1,-1,-1,-1,-1,-1,-1,-1,-1,-1,-1,-1,-1,-1],"loss_changes":[7.3431616E0,1.7783117E0,3.958354E0,5.4365206E-1,0E0,4.2756243E0,1.2669458E0,0E0,4.8178673E-1,2.4945774E0,3.1218905E0,0E0,0E0,2.1908045E-1,2.857219E-1,1.7864523E0,3.7357813E-1,2.8198078E0,4.7781444E0,2.5170898E-1,0E0,5.613607E-1,0E0,3.9968324E0,3.049121E-1,0E0,0E0,4.054833E0,3.2863226E0,4.858744E0,4.2311716E0,0E0,0E0,0E0,0E0,0E0,0E0,0E0,0E0,0E0,0E0,0E0,0E0,0E0,0E0,0E0,0E0],"parents":[2147483647,0,0,1,1,2,2,3,3,5,5,6,6,8,8,9,9,10,10,13,13,14,14,15,15,16,16,17,17,18,18,19,19,21,21,23,23,24,24,27,27,28,28,29,29,30,30],"right_children":[2,4,6,8,-1,10,12,-1,14,16,18,-1,-1,20,22,24,26,28,30,32,-1,34,-1,36,38,-1,-1,40,42,44,46,-1,-1,-1,-1,-1,-1,-1,-1,-1,-1,-1,-1,-1,-1,-1,-1],"split_conditions":[1.2E0,8.430583E1,9.473684E1,9.5E-1,1.0137652E-2,3.45E1,1.47E0,-2.5273682E-4,6.39E0,2.46E0,3.42E0,4.332877E-3,3.6101826E-2,1.1E0,1.47E0,1.51E0,2.98E1,6.79646E1,6.1425575E1,1.02E0,-7.836647E-3,1.14E0,-1.5630808E-2,1.32E0,2.16E0,-1.8100797E-4,-1.7011423E-2,6.5360825E1,3.21E0,1.6E0,1.11E1,-8.664886E-3,-2.3129383E-2,-1.0034997E-2,7.26773E-3,1.5886571E-2,-7.952986E-3,2.3476295E-2,6.336364E-3,4.4449223E-3,2.6853185E-2,-3.9222636E-3,1.6517311E-2,-2.1541596E-3,-1.896103E-2,7.044825E-3,-1.0340475E-2],"split_indices":[5,9,9,1,0,3,2,0,1,2,1,0,0,5,2,2,3,9,9,2,0,2,0,2,2,0,0,9,1,2,5,0,0,0,0,0,0,0,0,0,0,0,0,0,0,0,0],"split_type":[0,0,0,0,0,0,0,0,0,0,0,0,0,0,0,0,0,0,0,0,0,0,0,0,0,0,0,0,0,0,0,0,0,0,0,0,0,0,0,0,0,0,0,0,0,0,0],"sum_hessian":[3.69E2,2.9E1,3.4E2,2.7E1,2E0,3.35E2,5E0,2E0,2.5E1,4.3E1,2.92E2,2E0,3E0,1.8E1,7E0,3.9E1,4E0,1.64E2,1.28E2,1.5E1,3E0,5E0,2E0,2.6E1,1.3E1,2E0,2E0,9.6E1,6.8E1,6.4E1,6.4E1,3E0,1.2E1,3E0,2E0,1.7E1,9E0,1.1E1,2E0,8.9E1,7E0,6.1E1,7E0,3.9E1,2.5E1,4.8E1,1.6E1],"tree_param":{"num_deleted":"0","num_feature":"10","num_nodes":"47","size_leaf_vector":"1"}},{"base_weights":[-7.7396827E-3,2.8973762E-2,-3.3699086E-1,5.556601E-1,1.1383056E-2,-4.3597925E-1,1.6366898E-1,6.5895903E-1,1.8163025E-3,-1.1700052E-3,6.9153553E-1,-4.9816087E-1,9.9348985E-3,1.4050644E-2,-5.458023E-3,9.609534E-3,2.32468E-2,7.978051E-2,-1.3541989E-1,3.0275444E-2,1.124869E-3,-3.388685E-1,-2.3485761E-2,1.16257556E-1,-2.4362692E-1,-1.881791E-1,3.2547957E-1,-5.333296E-1,1.2624367E-1,-1.27552105E-2,4.2985147E-3,-1.1833946E-2,2.3786675E-2,-2.0681662E-2,-4.741004E-3,-1.6160955E-3,1.9749958E-2,-4.5121335E-3,-1.9767059E-2,-1.1040352E-2,1.1926445E-2],"categories":[],"categories_nodes":[],"categories_segments":[],"categories_sizes":[],"default_left":[0,0,0,0,0,0,0,0,0,0,0,0,0,0,0,0,0,0,0,0,0,0,0,0,0,0,0,0,0,0,0,0,0,0,0,0,0,0,0,0,0],"id":5,"left_children":[1,3,5,7,9,11,13,15,-1,17,19,21,-1,-1,-1,-1,-1,23,25,-1,-1,27,-1,29,31,33,35,37,39,-1,-1,-1,-1,-1,-1,-1,-1,-1,-1,-1,-1],"loss_changes":[4.5790076E0,3.1529667E0,1.9546175E0,5.2269983E-1,2.8268857E0,1.691442E0,8.2231224E-1,1.05128765E-1,0E0,3.5536406E0,1.208679E0,1.0952201E0,0E0,0E0,0E0,0E0,0E0,2.4349005E0,3.052202E0,0E0,0E0,1.9667001E0,0E0,2.7533686E0,3.5960326E0,1.5681834E0,1.6769397E0,6.2217045E-1,1.0849584E0,0E0,0E0,0E0,0E0,0E0,0E0,0E0,0E0,0E0,0E0,0E0,0E0],"parents":[2147483647,0,0,1,1,2,2,3,3,4,4,5,5,6,6,7,7,9,9,10,10,11,11,17,17,18,18,21,21,23,23,24,24,25,25,26,26,27,27,28,28],"right_children":[2,4,6,8,10,12,14,16,-1,18,20,22,-1,-1,-1,-1,-1,24,26,-1,-1,28,-1,30,32,34,36,38,40,-1,-1,-1,-1,-1,-1,-1,-1,-1,-1,-1,-1],"split_conditions":[7.7E0,4.3E0,3.3861E0,7.35E0,7.63E0,8.430583E1,6.404887E1,6.88E0,1.8163025E-3,6.46E0,6.055227E1,2.6751E0,9.9348985E-3,1.4050644E-2,-5.458023E-3,9.609534E-3,2.32468E-2,8.759843E1,3.3861E0,3.0275444E-2,1.124869E-3,2.5282E0,-2.3485761E-2,2.2314049E1,1.83E0,7.3E0,1.8E0,1.14E0,1.07E0,-1.27552105E-2,4.2985147E-3,-1.1833946E-2,2.3786675E-2,-2.0681662E-2,-4.741004E-3,-1.6160955E-3,1.9749958E-2,-4.5121335E-3,-1.9767059E-2,-1.1040352E-2,1.1926445E-2],"split_indices":[0,6,8,0,0,9,9,0,0,0,9,8,0,0,0,0,0,9,8,0,0,8,0,9,2,6,2,2,2,0,0,0,0,0,0,0,0,0,0,0,0],"split_type":[0,0,0,0,0,0,0,0,0,0,0,0,0,0,0,0,0,0,0,0,0,0,0,0,0,0,0,0,0,0,0,0,0,0,0,0,0,0,0,0,0],"sum_hessian":[3.77E2,3.4E2,3.7E1,1E1,3.3E2,3.1E1,6E0,8E0,2E0,3.25E2,5E0,2.9E1,2E0,3E0,3E0,3E0,5E0,2.03E2,1.22E2,3E0,2E0,2E1,9E0,1.83E2,2E1,1.1E2,1.2E1,1.4E1,6E0,8E0,1.75E2,1.8E1,2E0,5E0,1.05E2,6E0,6E0,4E0,1E1,2E0,4E0],"tree_param":{"num_deleted":"0","num_feature":"10","num_nodes":"41","size_leaf_vector":"1"}},{"base_weights":[1.7481182E-2,3.1085664E-3,8.5297024E-1,-9.869851E-3,2.2465484E-2,4.4828975E-3,3.5021488E-2,5.5328187E-2,-1.7243597E-1,2.0247003E-2,7.4064744E-1,-2.72104E-1,1.5036431E-1,-1.8270972E-1,1.488799E-1,1.4002995E-1,3.0703574E-2,4.915441E-3,-4.3380108E-1,6.2876576E-1,-1.2813427E-1,-1.2152162E-2,6.207414E-4,2.0826453E-2,2.5590137E-3,8.998454E-3,-1.9969558E-3,8.035569E-3,-7.7504735E-3,-1.418849E-2,9.332338E-3,-5.540789E-3,2.6627017E-2,3.7020068E-3,-1.7037755E-2],"categories":[],"categories_nodes":[],"categories_segments":[],"categories_sizes":[],"default_left":[0,0,0,0,0,0,0,0,0,0,0,0,0,0,0,0,0,0,0,0,0,0,0,0,0,0,0,0,0,0,0,0,0,0,0],"id":6,"left_children":[1,3,5,7,-1,-1,-1,9,11,13,15,17,19,21,23,25,-1,27,29,31,33,-1,-1,-1,-1,-1,-1,-1,-1,-1,-1,-1,-1,-1,-1],"loss_changes":[4.2602463E0,3.3948789E0,1.15277E0,3.666193E0,0E0,0E0,0E0,5.9233317E0,3.226029E0,6.188433E0,1.8949771E0,3.4064188E0,3.2781854E0,4.169426E0,4.96824E0,1.8515806E-1,0E0,2.076636E0,1.5468502E0,2.0586467E0,1.8400432E0,0E0,0E0,0E0,0E0,0E0,0E0,0E0,0E0,0E0,0E0,0E0,0E0,0E0,0E0],"parents":[2147483647,0,0,1,1,2,2,3,3,7,7,8,8,9,9,10,10,11,11,12,12,13,13,14,14,15,15,17,17,18,18,19,19,20,20],"right_children":[2,4,6,8,-1,-1,-1,10,12,14,16,18,20,22,24,26,-1,28,30,32,34,-1,-1,-1,-1,-1,-1,-1,-1,-1,-1,-1,-1,-1,-1],"split_conditions":[9.473684E1,1.197E1,1.47E0,6.03E0,2.2465484E-2,4.4828975E-3,3.5021488E-2,5.36E0,7.71E0,1.28E0,2.0268E0,6.43E0,8.39E0,2.15E0,1.33E0,7.1875E1,3.0703574E-2,1.28E0,8.89483E1,6.53E0,1.88E0,-1.2152162E-2,6.207414E-4,2.0826453E-2,2.5590137E-3,8.998454E-3,-1.9969558E-3,8.035569E-3,-7.7504735E-3,-1.418849E-2,9.332338E-3,-5.540789E-3,2.6627017E-2,3.7020068E-3,-1.7037755E-2],"split_indices":[9,1,2,7,0,0,0,7,1,2,8,0,1,8,2,9,0,2,9,0,2,0,0,0,0,0,0,0,0,0,0,0,0,0,0],"split_type":[0,0,0,0,0,0,0,0,0,0,0,0,0,0,0,0,0,0,0,0,0,0,0,0,0,0,0,0,0,0,0,0,0,0,0],"sum_hessian":[3.54E2,3.49E2,5E0,3.44E2,5E0,2E0,3E0,2.46E2,9.8E1,2.35E2,1.1E1,7.5E1,2.3E1,9.1E1,1.44E2,4E0,7E0,2.8E1,4.7E1,8E0,1.5E1,4.3E1,4.8E1,1.4E1,1.3E2,2E0,2E0,1.4E1,1.4E1,4.5E1,2E0,2E0,6E0,1E1,5E0],"tree_param":{"num_deleted":"0","num_feature":"10","num_nodes":"35","size_leaf_vector":"1"}},{"base_weights":[3.815833E-3,-1.0345281E-2,8.3396524E-1,1.6418304E-2,-3.9389476E-1,4.39324E-3,3.4233507E-2,2.778425E-1,-2.0598281E-2,-4.7698498E-1,9.57105E-3,7.498599E-2,4.4962826E-1,-1.7306025E-1,5.225463E-2,-5.712299E-1,1.9908969E-3,5.4371274E-1,-2.192294E-1,-7.4594533E-3,6.215024E-1,-2.7534017E-1,1.5531975E-2,9.2010304E-2,-1.556109E-1,-2.7145958E-3,-6.2566733E-1,4.1643614E-3,2.2766722E-2,5.4237116E-3,-1.2513113E-2,-1.7894069E-2,1.0423144E-2,6.4549693E-3,2.5313634E-2,-1.973424E-2,-6.155931E-3,1.2043085E-2,-6.3962494E-3,5.0790273E-3,-3.045686E-3,1.9873526E-2,-6.9669015E-3,-2.1473741E-2,-1.0684861E-2],"categories":[],"categories_nodes":[],"categories_segments":[],"categories_sizes":[],"default_left":[0,0,0,0,0,0,0,0,0,0,0,0,0,0,0,0,0,0,0,0,0,0,0,0,0,0,0,0,0,0,0,0,0,0,0,0,0,0,0,0,0,0,0,0,0],"id":7,"left_children":[1,3,5,7,9,-1,-1,11,13,15,-1,17,19,21,23,25,-1,27,29,31,33,35,37,39,41,-1,43,-1,-1,-1,-1,-1,-1,-1,-1,-1,-1,-1,-1,-1,-1,-1,-1,-1,-1],"loss_changes":[4.2054625E0,3.6198032E0,1.0999379E0,3.1991432E0,1.514637E0,0E0,0E0,1.3950462E0,3.2301598E0,1.1132722E0,0E0,2.87733E0,1.7329903E0,1.8174608E0,1.6422932E0,4.144535E-1,0E0,5.916629E-1,1.1044061E0,1.6705025E0,1.2636104E0,1.501481E0,3.0868318E0,2.5002651E0,2.1595757E0,0E0,1.3368511E-1,0E0,0E0,0E0,0E0,0E0,0E0,0E0,0E0,0E0,0E0,0E0,0E0,0E0,0E0,0E0,0E0,0E0,0E0],"parents":[2147483647,0,0,1,1,2,2,3,3,4,4,7,7,8,8,9,9,11,11,12,12,13,13,14,14,15,15,17,17,18,18,19,19,20,20,21,21,22,22,23,23,24,24,26,26],"right_children":[2,4,6,8,10,-1,-1,12,14,16,-1,18,20,22,24,26,-1,28,30,32,34,36,38,40,42,-1,44,-1,-1,-1,-1,-1,-1,-1,-1,-1,-1,-1,-1,-1,-1,-1,-1,-1,-1],"split_conditions":[9.473684E1,7.79E0,1.47E0,1.46E1,8.256705E1,4.39324E-3,3.4233507E-2,6.53E0,5.3658535E1,3.3861E0,9.57105E-3,2.2814E0,1.17E0,2.4961E0,8.561151E1,1.02E0,1.9908969E-3,5.55E0,1.2E0,2.8351E0,4.0037952E1,1.06E0,2.6842E0,2.5274E0,3.57E0,-2.7145958E-3,2.5282E0,4.1643614E-3,2.2766722E-2,5.4237116E-3,-1.2513113E-2,-1.7894069E-2,1.0423144E-2,6.4549693E-3,2.5313634E-2,-1.973424E-2,-6.155931E-3,1.2043085E-2,-6.3962494E-3,5.0790273E-3,-3.045686E-3,1.9873526E-2,-6.9669015E-3,-2.1473741E-2,-1.0684861E-2],"split_indices":[9,0,2,6,9,0,0,0,9,8,0,8,2,8,9,2,0,0,2,8,9,2,8,8,0,0,8,0,0,0,0,0,0,0,0,0,0,0,0,0,0,0,0,0,0],"split_type":[0,0,0,0,0,0,0,0,0,0,0,0,0,0,0,0,0,0,0,0,0,0,0,0,0,0,0,0,0,0,0,0,0,0,0,0,0,0,0,0,0,0,0,0,0],"sum_hessian":[3.56E2,3.51E2,5E0,3.29E2,2.2E1,2E0,3E0,4E1,2.89E2,2E1,2E0,1.9E1,2.1E1,9.3E1,1.96E2,1.7E1,3E0,7E0,1.2E1,6E0,1.5E1,6E1,3.3E1,1.65E2,3.1E1,2E0,1.5E1,3E0,4E0,4E0,8E0,2E0,4E0,6E0,9E0,8E0,5.2E1,1.2E1,2.1E1,1.18E2,4.7E1,2E0,2.9E1,1E1,5E0],"tree_param":{"num_deleted":"0","num_feature":"10","num_nodes":"45","size_leaf_vector":"1"}},{"base_weights":[-7.648929E-3,-3.1219924E-2,4.0286884E-1,6.657135E-2,-1.7021985E-1,1.06580116E-1,6.884995E-1,3.210999E-2,4.7163922E-1,-2.556071E-1,1.4927578E-1,1.8447474E-2,-2.7174252E-1,2.370954E-2,5.6245136E-3,-5.9966974E-2,2.143235E-1,2.3463676E-2,6.339058E-2,-2.863293E-1,3.4511438E-1,-1.2505364E-1,4.1427547E-1,8.943906E-4,-1.51608735E-2,-2.6889062E-1,8.376982E-2,-5.2518654E-1,3.1435433E-1,1.4013822E-2,-1.4904292E-1,-5.118198E-1,-2.1664001E-1,1.9130519E-2,1.182257E-3,3.4848207E-1,-5.3207946E-1,6.905255E-1,-3.3157966E-1,6.8080504E-3,-1.222356E-2,3.1156553E-2,-3.8715254E-4,-3.2194983E-3,-1.9397713E-2,2.2036823E-2,3.973656E-3,-1.2085357E-2,7.1712337E-3,-1.8058863E-2,3.3575436E-3,-1.4570451E-2,-3.7915776E-3,-9.787426E-3,1.8832996E-2,-1.980428E-2,-1.6771626E-3,2.2789665E-2,6.897513E-3,4.6318947E-4,-1.7042171E-2],"categories":[],"categories_nodes":[],"categories_segments":[],"categories_sizes":[],"default_left":[0,0,0,0,0,0,0,0,0,0,0,0,0,0,0,0,0,0,0,0,0,0,0,0,0,0,0,0,0,0,0,0,0,0,0,0,0,0,0,0,0,0,0,0,0,0,0,0,0,0,0,0,0,0,0,0,0,0,0,0,0],"id":8,"left_children":[1,3,5,7,9,11,13,15,17,19,21,-1,23,-1,-1,25,27,-1,29,31,33,35,37,-1,-1,39,41,43,45,-1,47,49,51,-1,-1,53,55,57,59,-1,-1,-1,-1,-1,-1,-1,-1,-1,-1,-1,-1,-1,-1,-1,-1,-1,-1,-1,-1,-1,-1],"loss_changes":[3.5637841E0,4.741689E0,1.6192024E0,2.846489E0,3.966598E0,2.2825627E0,3.619547E-1,3.2006092E0,1.9784913E0,2.2027426E0,2.3054202E0,0E0,5.082121E-1,0E0,0E0,3.8363369E0,4.8994184E0,0E0,7.557599E-1,1.6019745E0,5.1151115E-1,3.26928E0,3.525644E0,0E0,0E0,3.6649842E0,7.0284653E0,3.3645844E-1,4.259509E0,0E0,6.8727636E-1,1.473E0,2.0025969E0,0E0,0E0,1.7123394E0,5.1191807E-1,2.0744467E-1,4.191085E-1,0E0,0E0,0E0,0E0,0E0,0E0,0E0,0E0,0E0,0E0,0E0,0E0,0E0,0E0,0E0,0E0,0E0,0E0,0E0,0E0,0E0,0E0],"parents":[2147483647,0,0,1,1,2,2,3,3,4,4,5,5,6,6,7,7,8,8,9,9,10,10,12,12,15,15,16,16,18,18,19,19,20,20,21,21,22,22,25,25,26,26,27,27,28,28,30,30,31,31,32,32,35,35,36,36,37,37,38,38],"right_children":[2,4,6,8,10,12,14,16,18,20,22,-1,24,-1,-1,26,28,-1,30,32,34,36,38,-1,-1,40,42,44,46,-1,48,50,52,-1,-1,54,56,58,60,-1,-1,-1,-1,-1,-1,-1,-1,-1,-1,-1,-1,-1,-1,-1,-1,-1,-1,-1,-1,-1,-1],"split_conditions":[3.3636E0,6.46E0,6.12E0,6.31E0,7.35E0,3.36E0,7.6104416E1,2.204E0,6.0587E1,8.6281586E1,2.72E1,1.8447474E-2,3.86E1,2.370954E-2,5.6245136E-3,6.63E1,2.2314049E1,2.3463676E-2,5.9E0,2.0523E0,8.812949E1,7.33E0,3.32E1,8.943906E-4,-1.51608735E-2,4.92E1,6.7E1,1.86E0,2.44E0,1.4013822E-2,7.977737E1,6.27E0,4.19E1,1.9130519E-2,1.182257E-3,6.88E0,7.75E0,6.6666664E1,7.47E0,6.8080504E-3,-1.222356E-2,3.1156553E-2,-3.8715254E-4,-3.2194983E-3,-1.9397713E-2,2.2036823E-2,3.973656E-3,-1.2085357E-2,7.1712337E-3,-1.8058863E-2,3.3575436E-3,-1.4570451E-2,-3.7915776E-3,-9.787426E-3,1.8832996E-2,-1.980428E-2,-1.6771626E-3,2.2789665E-2,6.897513E-3,4.6318947E-4,-1.7042171E-2],"split_indices":[8,0,1,0,1,1,9,8,9,9,3,0,3,0,0,3,9,0,5,8,9,0,3,0,0,3,3,1,1,0,9,1,3,0,0,0,0,9,1,0,0,0,0,0,0,0,0,0,0,0,0,0,0,0,0,0,0,0,0,0,0],"split_type":[0,0,0,0,0,0,0,0,0,0,0,0,0,0,0,0,0,0,0,0,0,0,0,0,0,0,0,0,0,0,0,0,0,0,0,0,0,0,0,0,0,0,0,0,0,0,0,0,0,0,0,0,0,0,0,0,0,0,0,0,0],"sum_hessian":[3.66E2,3.47E2,1.9E1,2.04E2,1.43E2,1E1,9E0,1.89E2,1.5E1,1.13E2,3E1,4E0,6E0,7E0,2E0,1.26E2,6.3E1,8E0,7E0,1.08E2,5E0,1.5E1,1.5E1,3E0,3E0,5.1E1,7.5E1,7E0,5.6E1,2E0,5E0,2.4E1,8.4E1,2E0,3E0,7E0,8E0,1.1E1,4E0,1.1E1,4E1,6E0,6.9E1,2E0,5E0,1.6E1,4E1,3E0,2E0,2.1E1,3E0,2E1,6.4E1,2E0,5E0,6E0,2E0,9E0,2E0,2E0,2E0],"tree_param":{"num_deleted":"0","num_feature":"10","num_nodes":"61","size_leaf_vector":"1"}},{"base_weights":[-9.035264E-3,2.4203936E-2,-3.688254E-1,6.055657E-1,7.6220436E-3,-4.2794332E-1,9.176502E-3,9.121293E-3,2.1169594E-2,1.4725298E-1,-6.3222185E-2,-1.8163455E-1,-5.546907E-1,9.43447E-3,5.552547E-1,-8.4407076E-2,6.746627E-1,-4.0634656E-1,1.6591392E-2,-1.8077327E-2,-3.431916E-3,-5.4420177E-2,2.9727275E-2,3.799081E-2,1.8919127E-1,5.245271E-1,-1.02164276E-1,2.9177152E-2,1.5768938E-3,-1.8018244E-2,-1.3081573E-1,1.95416E-2,-3.0605288E-3,-1.1346989E-2,1.9087447E-2,2.5222492E-3,2.1712031E-2,-1.8573549E-2,-2.492491E-3,2.192192E-3,-8.732978E-3],"categories":[],"categories_nodes":[],"categories_segments":[],"categories_sizes":[],"default_left":[0,0,0,0,0,0,0,0,0,0,0,0,0,0,0,0,0,0,0,0,0,0,0,0,0,0,0,0,0,0,0,0,0,0,0,0,0,0,0,0,0],"id":9,"left_children":[1,3,5,7,9,11,-1,-1,-1,13,15,17,19,21,23,25,27,29,-1,-1,-1,31,-1,-1,33,35,37,-1,-1,-1,39,-1,-1,-1,-1,-1,-1,-1,-1,-1,-1],"loss_changes":[4.242461E0,3.1284099E0,1.3275218E0,5.705881E-2,3.1450882E0,7.7338076E-1,0E0,0E0,0E0,6.0113907E0,3.3553007E0,2.0407364E0,3.1058407E-1,5.130335E0,6.78878E0,2.2810593E0,1.060853E0,4.0315628E-1,0E0,0E0,0E0,2.6532378E0,0E0,0E0,5.0603986E0,4.655999E-1,1.9312513E0,0E0,0E0,0E0,1.8467164E-1,0E0,0E0,0E0,0E0,0E0,0E0,0E0,0E0,0E0,0E0],"parents":[2147483647,0,0,1,1,2,2,3,3,4,4,5,5,9,9,10,10,11,11,12,12,13,13,14,14,15,15,16,16,17,17,21,21,24,24,25,25,26,26,30,30],"right_children":[2,4,6,8,10,12,-1,-1,-1,14,16,18,20,22,24,26,28,30,-1,-1,-1,32,-1,-1,34,36,38,-1,-1,-1,40,-1,-1,-1,-1,-1,-1,-1,-1,-1,-1],"split_conditions":[7.7E0,4.3E0,8.430583E1,1.197E1,5.48E0,7.79E0,9.176502E-3,9.121293E-3,2.1169594E-2,5.2E0,7.63E0,7.77E0,5.18E1,8.826715E1,6.1425575E1,2.8E-1,6.055227E1,5.41E0,1.6591392E-2,-1.8077327E-2,-3.431916E-3,4.41E1,2.9727275E-2,3.799081E-2,3.04E0,2.81E0,5.3E-1,2.9177152E-2,1.5768938E-3,-1.8018244E-2,7.72E0,1.95416E-2,-3.0605288E-3,-1.1346989E-2,1.9087447E-2,2.5222492E-3,2.1712031E-2,-1.8573549E-2,-2.492491E-3,2.192192E-3,-8.732978E-3],"split_indices":[0,6,9,1,0,0,0,0,0,0,0,0,3,9,9,7,9,1,0,0,0,3,0,0,1,1,7,0,0,0,0,0,0,0,0,0,0,0,0,0,0],"split_type":[0,0,0,0,0,0,0,0,0,0,0,0,0,0,0,0,0,0,0,0,0,0,0,0,0,0,0,0,0,0,0,0,0,0,0,0,0,0,0,0,0],"sum_hessian":[3.53E2,3.24E2,2.9E1,8E0,3.16E2,2.7E1,2E0,3E0,5E0,1.06E2,2.1E2,1E1,1.7E1,8E1,2.6E1,2.05E2,5E0,8E0,2E0,1.5E1,2E0,7.6E1,4E0,8E0,1.8E1,5E0,2E2,3E0,2E0,4E0,4E0,4E0,7.2E1,8E0,1E1,2E0,3E0,6E0,1.94E2,2E0,2E0],"tree_param":{"num_deleted":"0","num_feature":"10","num_nodes":"41","size_leaf_vector":"1"}},{"base_weights":[-9.745407E-3,1.412208E-2,-5.6123024E-1,-1.3144389E-1,9.16523E-2,1.0359108E-3,-6.555419E-1,-3.4906492E-1,2.0036353E-3,2.848138E-2,6.4069755E-2,-2.1157764E-2,-7.6419828E-3,3.699688E-1,-4.263531E-1,-3.5300112E-1,1.439691E-1,-1.9267744E-1,1.1843626E-1,2.6850533E-3,1.5813386E-2,-5.36964E-1,-1.3830075E-1,2.7536666E-1,-6.6459715E-1,6.3777995E-1,6.021401E-3,-3.2389313E-1,2.2023733E-1,2.9585567E-1,-1.0346263E-2,-2.1217695E-2,-7.7960845E-3,2.0049792E-3,-1.4396421E-2,1.5699867E-2,-9.3704015E-3,-2.1074155E-2,-8.368239E-3,2.7370648E-2,-1.4701904E-2,-6.1293156E-3,1.0562887E-2,-3.0698504E-3,-1.4619171E-2,1.6027719E-2,-2.3445655E-3,4.252412E-2,7.4113896E-3,1.4766043E-2,-1.5133984E-3],"categories":[],"categories_nodes":[],"categories_segments":[],"categories_sizes":[],"default_left":[0,0,0,0,0,0,0,0,0,0,0,0,0,0,0,0,0,0,0,0,0,0,0,0,0,0,0,0,0,0,0,0,0,0,0,0,0,0,0,0,0,0,0,0,0,0,0,0,0,0,0],"id":10,"left_children":[1,3,5,7,9,-1,11,13,15,-1,17,-1,-1,19,21,23,25,27,29,-1,-1,31,33,35,37,39,41,43,45,47,49,-1,-1,-1,-1,-1,-1,-1,-1,-1,-1,-1,-1,-1,-1,-1,-1,-1,-1,-1,-1],"loss_changes":[4.759609E0,3.9282062E0,8.654437E-1,3.5146592E0,5.309605E0,0E0,7.9398155E-2,2.7140865E0,3.8811007E0,0E0,3.1076374E0,0E0,0E0,1.7319113E-1,1.2639308E0,4.4905405E0,3.7427635E0,2.1843877E0,4.1843405E0,0E0,0E0,1.2318192E0,9.4297457E-1,1.329306E0,2.3149967E-2,4.1632433E0,3.2747228E0,1.0363293E0,9.7875607E-1,3.8652067E0,2.1811302E0,0E0,0E0,0E0,0E0,0E0,0E0,0E0,0E0,0E0,0E0,0E0,0E0,0E0,0E0,0E0,0E0,0E0,0E0,0E0,0E0],"parents":[2147483647,0,0,1,1,2,2,3,3,4,4,6,6,7,7,8,8,10,10,13,13,14,14,15,15,16,16,17,17,18,18,21,21,22,22,23,23,24,24,25,25,26,26,27,27,28,28,29,29,30,30],"right_children":[2,4,6,8,10,-1,12,14,16,-1,18,-1,-1,20,22,24,26,28,30,-1,-1,32,34,36,38,40,42,44,46,48,50,-1,-1,-1,-1,-1,-1,-1,-1,-1,-1,-1,-1,-1,-1,-1,-1,-1,-1,-1,-1],"split_conditions":[7.85E0,2.043E0,2.1711E0,1.25E0,1.03E0,1.0359108E-3,9.21E0,4.3037975E1,5.5963303E1,2.848138E-2,3.9779007E1,-2.1157764E-2,-7.6419828E-3,2.41E0,4.2E0,2.04E0,6.79646E1,6.86E0,6.4E0,2.6850533E-3,1.5813386E-2,1.91E1,4.17E0,4.845173E1,2.0153E0,1.9556E0,2.04E1,3.41E0,2.6694916E1,2.0523E0,4.4791668E1,-2.1217695E-2,-7.7960845E-3,2.0049792E-3,-1.4396421E-2,1.5699867E-2,-9.3704015E-3,-2.1074155E-2,-8.368239E-3,2.7370648E-2,-1.4701904E-2,-6.1293156E-3,1.0562887E-2,-3.0698504E-3,-1.4619171E-2,1.6027719E-2,-2.3445655E-3,4.252412E-2,7.4113896E-3,1.4766043E-2,-1.5133984E-3],"split_indices":[0,8,8,2,2,0,7,9,9,0,9,0,0,7,7,1,9,7,0,0,0,4,1,9,8,8,4,1,9,8,9,0,0,0,0,0,0,0,0,0,0,0,0,0,0,0,0,0,0,0,0],"split_type":[0,0,0,0,0,0,0,0,0,0,0,0,0,0,0,0,0,0,0,0,0,0,0,0,0,0,0,0,0,0,0,0,0,0,0,0,0,0,0,0,0,0,0,0,0,0,0,0,0,0,0],"sum_hessian":[3.6E2,3.46E2,1.4E1,1.2E2,2.26E2,2E0,1.2E1,4.5E1,7.5E1,6E0,2.2E2,1E1,2E0,4E0,4.1E1,2.1E1,5.4E1,3.8E1,1.82E2,2E0,2E0,2.9E1,1.2E1,7E0,1.4E1,1.1E1,4.3E1,2.9E1,9E0,7.6E1,1.06E2,1.7E1,1.2E1,8E0,4E0,5E0,2E0,1.2E1,2E0,9E0,2E0,2.7E1,1.6E1,1.3E1,1.6E1,4E0,5E0,2E0,7.4E1,7E0,9.9E1],"tree_param":{"num_deleted":"0","num_feature":"10","num_nodes":"51","size_leaf_vector":"1"}},{"base_weights":[-4.475472E-3,-3.144103E-2,4.2227408E-1,8.561939E-2,-1.8472926E-1,6.729786E-1,1.5727212E-1,6.1100766E-2,3.059454E-2,-2.6830196E-1,1.9345805E-4,2.2759885E-2,5.7479893E-3,5.036342E-1,-2.73029E-1,-1.5522277E-1,1.52237E-1,-2.0682564E-1,-5.161612E-1,8.935854E-2,-1.9165654E-2,1.7555952E-2,5.994472E-3,-1.6821815E-2,6.0473476E-3,5.160587E-1,-2.4260254E-1,-1.1555929E-1,2.844804E-1,-2.6148513E-1,3.5195744E-1,-1.4679903E-3,-5.9573483E-1,-2.565216E-2,5.2669364E-1,2.1090214E-3,2.4984058E-2,-8.512303E-3,1.5718406E-2,9.295946E-3,-5.249939E-3,-2.1585647E-2,9.443587E-3,-6.6552777E-3,-2.1006647E-2,1.8466003E-2,-1.9650583E-3,-8.465714E-3,-1.9282993E-2,5.8366936E-3,-1.2398363E-2,2.0387053E-4,2.0227952E-2],"categories":[],"categories_nodes":[],"categories_segments":[],"categories_sizes":[],"default_left":[0,0,0,0,0,0,0,0,0,0,0,0,0,0,0,0,0,0,0,0,0,0,0,0,0,0,0,0,0,0,0,0,0,0,0,0,0,0,0,0,0,0,0,0,0,0,0,0,0,0,0,0,0],"id":11,"left_children":[1,3,5,7,9,11,13,15,-1,17,19,-1,-1,21,23,25,27,29,31,33,-1,-1,-1,-1,-1,35,37,39,41,43,45,-1,47,49,51,-1,-1,-1,-1,-1,-1,-1,-1,-1,-1,-1,-1,-1,-1,-1,-1,-1,-1],"loss_changes":[4.259559E0,6.260323E0,1.3557775E0,4.472931E0,2.3336797E0,3.0835295E-1,1.9259865E0,3.8483238E0,0E0,1.477942E0,2.7921665E0,0E0,0E0,5.6533217E-2,9.3229234E-1,3.527269E0,4.884633E0,2.6881692E0,7.144294E-1,2.176334E0,0E0,0E0,0E0,0E0,0E0,9.297893E-1,1.7885671E0,1.2174116E0,3.0257907E0,1.2012854E0,9.205769E-1,0E0,6.9307804E-2,3.0679615E0,6.859169E-1,0E0,0E0,0E0,0E0,0E0,0E0,0E0,0E0,0E0,0E0,0E0,0E0,0E0,0E0,0E0,0E0,0E0,0E0],"parents":[2147483647,0,0,1,1,2,2,3,3,4,4,5,5,6,6,7,7,9,9,10,10,13,13,14,14,15,15,16,16,17,17,18,18,19,19,25,25,26,26,27,27,28,28,29,29,30,30,32,32,33,33,34,34],"right_children":[2,4,6,8,10,12,14,16,-1,18,20,-1,-1,22,24,26,28,30,32,34,-1,-1,-1,-1,-1,36,38,40,42,44,46,-1,48,50,52,-1,-1,-1,-1,-1,-1,-1,-1,-1,-1,-1,-1,-1,-1,-1,-1,-1,-1],"split_conditions":[3.5002E0,6.43E0,3.39E1,9.311741E1,6.931035E1,7.6104416E1,4.17E0,1.89E0,3.059454E-2,7.73E0,3.1696E0,2.2759885E-2,5.7479893E-3,3.02E0,7.57E0,1.46E1,4.79E0,7.62E0,7.2E-1,2.8771E0,-1.9165654E-2,1.7555952E-2,5.994472E-3,-1.6821815E-2,6.0473476E-3,6.2242992E1,6.31E0,1.3673E0,1.3431E0,6.705653E1,5.32E1,-1.4679903E-3,1.86E0,7.34E0,7.06E0,2.1090214E-3,2.4984058E-2,-8.512303E-3,1.5718406E-2,9.295946E-3,-5.249939E-3,-2.1585647E-2,9.443587E-3,-6.6552777E-3,-2.1006647E-2,1.8466003E-2,-1.9650583E-3,-8.465714E-3,-1.9282993E-2,5.8366936E-3,-1.2398363E-2,2.0387053E-4,2.0227952E-2],"split_indices":[8,0,3,9,9,9,7,7,0,0,8,0,0,7,0,6,0,0,7,8,0,0,0,0,0,9,0,8,8,9,3,0,7,0,0,0,0,0,0,0,0,0,0,0,0,0,0,0,0,0,0,0,0],"split_type":[0,0,0,0,0,0,0,0,0,0,0,0,0,0,0,0,0,0,0,0,0,0,0,0,0,0,0,0,0,0,0,0,0,0,0,0,0,0,0,0,0,0,0,0,0,0,0,0,0,0,0,0,0],"sum_hessian":[3.68E2,3.47E2,2.1E1,1.97E2,1.5E2,1E1,1.1E1,1.93E2,4E0,1.03E2,4.7E1,8E0,2E0,6E0,5E0,5.7E1,1.36E2,8.4E1,1.9E1,4.2E1,5E0,4E0,2E0,3E0,2E0,6E0,5.1E1,4.5E1,9.1E1,7.7E1,7E0,3E0,1.6E1,3.4E1,8E0,3E0,3E0,4.9E1,2E0,5E0,4E1,2E0,8.9E1,7.2E1,5E0,4E0,3E0,3E0,1.3E1,2.2E1,1.2E1,2E0,6E0],"tree_param":{"num_deleted":"0","num_feature":"10","num_nodes":"53","size_leaf_vector":"1"}},{"base_weights":[3.5867747E-3,-2.2415759E-1,5.4430705E-2,-4.576947E-2,-3.7720218E-1,-2.031698E-1,1.0855569E-1,6.1730914E-2,-1.9803533E-2,-6.2049544E-1,-2.1956435E-1,2.7558377E-1,-2.80337E-1,-1.040467E-1,1.507676E-1,2.4747302E-1,-3.785263E-1,6.050582E-3,-2.3229986E-2,-4.0839168E-1,2.0913927E-1,1.671952E-2,-4.919827E-3,-5.567486E-2,-4.758127E-1,-2.1600667E-1,3.4291393E-1,2.755813E-2,1.2420209E-1,-1.307386E-2,4.3387705E-1,-6.322678E-1,2.9015238E-3,2.103307E-3,-4.7686595E-1,6.4750016E-1,-1.17329005E-2,1.1302339E-2,-1.154833E-2,-1.6391888E-1,3.667874E-1,-1.9519995E-1,-5.199675E-1,4.9804423E-2,-1.7212251E-2,2.1677822E-2,-1.0534902E-1,1.8616306E-2,1.0382929E-1,5.55458E-3,1.7684065E-2,-8.5647125E-3,-2.2028513E-2,-1.6093973E-2,-1.7893404E-3,2.5956742E-2,6.4182663E-3,-8.842146E-3,5.0593805E-3,4.9018105E-3,1.3437559E-2,-1.3042124E-2,3.282126E-3,-2.0308267E-2,-9.47169E-3,-5.0241444E-3,1.5248421E-2,-9.277163E-3,4.009713E-3,2.0377336E-3,1.2250513E-2],"categories":[],"categories_nodes":[],"categories_segments":[],"categories_sizes":[],"default_left":[0,0,0,0,0,0,0,0,0,0,0,0,0,0,0,0,0,0,0,0,0,0,0,0,0,0,0,0,0,0,0,0,0,0,0,0,0,0,0,0,0,0,0,0,0,0,0,0,0,0,0,0,0,0,0,0,0,0,0,0,0,0,0,0,0,0,0,0,0,0,0],"id":12,"left_children":[1,3,5,7,9,11,13,15,-1,17,19,21,23,25,27,29,31,-1,-1,33,35,-1,37,39,41,43,45,-1,47,-1,49,51,-1,-1,53,55,-1,-1,-1,57,59,61,63,65,-1,-1,67,-1,69,-1,-1,-1,-1,-1,-1,-1,-1,-1,-1,-1,-1,-1,-1,-1,-1,-1,-1,-1,-1,-1,-1],"loss_changes":[4.377642E0,1.8665276E0,4.3303256E0,2.2201583E0,1.282794E0,2.0722365E0,2.3131208E0,2.4651296E0,0E0,1.9269238E0,2.0282338E0,6.349602E-1,2.0375607E0,2.2258646E0,4.251073E0,2.8637252E0,1.1464527E0,0E0,0E0,5.9043956E-1,2.358195E0,0E0,8.7023497E-1,1.1118908E0,2.0826244E-1,3.3567228E0,1.6078935E0,0E0,2.0388374E0,0E0,5.487492E-1,2.6304722E-3,0E0,0E0,3.4099746E-1,2.868731E-1,0E0,0E0,0E0,8.763189E-1,9.320855E-3,4.1238272E-1,4.5955944E-1,2.1770554E0,0E0,0E0,2.8498647E-1,0E0,2.1699529E0,0E0,0E0,0E0,0E0,0E0,0E0,0E0,0E0,0E0,0E0,0E0,0E0,0E0,0E0,0E0,0E0,0E0,0E0,0E0,0E0,0E0,0E0],"parents":[2147483647,0,0,1,1,2,2,3,3,4,4,5,5,6,6,7,7,9,9,10,10,11,11,12,12,13,13,14,14,15,15,16,16,19,19,20,20,22,22,23,23,24,24,25,25,26,26,28,28,30,30,31,31,34,34,35,35,39,39,40,40,41,41,42,42,43,43,46,46,48,48],"right_children":[2,4,6,8,10,12,14,16,-1,18,20,22,24,26,28,30,32,-1,-1,34,36,-1,38,40,42,44,46,-1,48,-1,50,52,-1,-1,54,56,-1,-1,-1,58,60,62,64,66,-1,-1,68,-1,70,-1,-1,-1,-1,-1,-1,-1,-1,-1,-1,-1,-1,-1,-1,-1,-1,-1,-1,-1,-1,-1,-1],"split_conditions":[1.11E0,3.86E1,3.9779007E1,1.09E0,2.25E0,3.19E1,2.4E0,1.76E1,-1.9803533E-2,1.22E0,7.01E1,8.24E0,3.41E0,5.42E1,4.319419E1,1.19E1,5.95E1,6.050582E-3,-2.3229986E-2,1.01E0,7.1875E1,1.671952E-2,2.3271502E1,2.16E0,1.28E0,1.5E0,5.46E1,2.755813E-2,2.46E1,-1.307386E-2,5.2713177E1,1.02E0,2.9015238E-3,2.103307E-3,1.09E0,1.05E0,-1.17329005E-2,1.1302339E-2,-1.154833E-2,2.64E0,5.71E1,1.15E0,4.6E0,1.22E1,-1.7212251E-2,2.1677822E-2,2.83E0,1.8616306E-2,2.04E1,5.55458E-3,1.7684065E-2,-8.5647125E-3,-2.2028513E-2,-1.6093973E-2,-1.7893404E-3,2.5956742E-2,6.4182663E-3,-8.842146E-3,5.0593805E-3,4.9018105E-3,1.3437559E-2,-1.3042124E-2,3.282126E-3,-2.0308267E-2,-9.47169E-3,-5.0241444E-3,1.5248421E-2,-9.277163E-3,4.009713E-3,2.0377336E-3,1.2250513E-2],"split_indices":[2,6,9,2,1,3,5,4,0,1,3,1,1,3,9,4,3,0,0,2,9,0,9,2,2,5,3,0,3,0,9,2,0,0,2,2,0,0,0,1,3,2,1,4,0,0,1,0,4,0,0,0,0,0,0,0,0,0,0,0,0,0,0,0,0,0,0,0,0,0,0],"split_type":[0,0,0,0,0,0,0,0,0,0,0,0,0,0,0,0,0,0,0,0,0,0,0,0,0,0,0,0,0,0,0,0,0,0,0,0,0,0,0,0,0,0,0,0,0,0,0,0,0,0,0,0,0,0,0,0,0,0,0,0,0,0,0,0,0,0,0,0,0,0,0],"sum_hessian":[3.76E2,6.8E1,3.08E2,3.2E1,3.6E1,5.3E1,2.55E2,2.8E1,4E0,1.3E1,2.3E1,7E0,4.6E1,4.2E1,2.13E2,2E1,8E0,2E0,1.1E1,1.6E1,7E0,3E0,4E0,2.2E1,2.4E1,3.4E1,8E0,6E0,2.07E2,4E0,1.6E1,5E0,3E0,2E0,1.4E1,4E0,3E0,2E0,2E0,1.8E1,4E0,4E0,2E1,2E1,1.4E1,4E0,4E0,7E0,2E2,7E0,9E0,2E0,3E0,1.2E1,2E0,2E0,2E0,1.3E1,5E0,2E0,2E0,2E0,2E0,1E1,1E1,1.4E1,6E0,2E0,2E0,1.8E2,2E1],"tree_param":{"num_deleted":"0","num_feature":"10","num_nodes":"71","size_leaf_vector":"1"}},{"base_weights":[-3.0123917E-2,5.056773E-1,-4.1596387E-2,1.977251E-2,9.0916397E-4,2.3256553E-2,-1.2633163E-1,-1.2819749E-1,1.0430251E-1,7.298239E-2,-1.8227586E-1,-3.1863177E-1,1.0521437E-1,2.7433115E-1,-4.9427734E-3,1.7632462E-1,-1.8090129E-2,-2.0063056E-1,3.0203426E-1,-4.3102583E-1,4.0883785E-1,-6.22197E-2,2.2797601E-2,-1.7628127E-1,5.4458207E-1,-7.932881E-2,2.4077828E-1,-3.9324585E-1,3.515342E-1,-4.1961066E-2,-2.7468055E-1,1.7805142E-2,-2.7034294E-3,-7.1229674E-3,-1.7752342E-2,2.6693236E-2,-1.1060711E-2,-1.2678462E-2,3.0920806E-3,7.667286E-3,-1.098188E-2,1.9767018E-2,-2.9616458E-3,1.8322835E-2,-3.6565457E-3,-7.1055647E-3,1.0169955E-2,3.733009E-4,-1.9174442E-2,-1.2447959E-2,1.30867185E-2,-4.924931E-3,1.40211815E-2,-2.2160228E-2,-6.867961E-3],"categories":[],"categories_nodes":[],"categories_segments":[],"categories_sizes":[],"default_left":[0,0,0,0,0,0,0,0,0,0,0,0,0,0,0,0,0,0,0,0,0,0,0,0,0,0,0,0,0,0,0,0,0,0,0,0,0,0,0,0,0,0,0,0,0,0,0,0,0,0,0,0,0,0,0],"id":13,"left_children":[1,3,5,-1,-1,7,9,11,13,15,17,19,21,23,25,27,-1,29,31,33,35,37,-1,39,41,43,45,47,49,51,53,-1,-1,-1,-1,-1,-1,-1,-1,-1,-1,-1,-1,-1,-1,-1,-1,-1,-1,-1,-1,-1,-1,-1,-1],"loss_changes":[2.3445864E0,5.634265E-1,2.0417051E0,0E0,0E0,2.6033409E0,1.8085287E0,3.3227968E0,2.5646822E0,2.6212115E0,1.1806579E0,3.528513E0,3.7743633E0,6.6720333E0,1.572749E0,3.3316534E0,0E0,1.4219103E0,6.249819E-1,9.7960997E-1,2.5717025E0,1.7115039E0,0E0,1.8146856E0,2.5654612E0,2.012698E0,1.0185516E0,8.060323E-1,1.8037996E0,2.566417E0,1.5927377E0,0E0,0E0,0E0,0E0,0E0,0E0,0E0,0E0,0E0,0E0,0E0,0E0,0E0,0E0,0E0,0E0,0E0,0E0,0E0,0E0,0E0,0E0,0E0,0E0],"parents":[2147483647,0,0,1,1,2,2,5,5,6,6,7,7,8,8,9,9,10,10,11,11,12,12,13,13,14,14,15,15,17,17,18,18,19,19,20,20,21,21,23,23,24,24,25,25,26,26,27,27,28,28,29,29,30,30],"right_children":[2,4,6,-1,-1,8,10,12,14,16,18,20,22,24,26,28,-1,30,32,34,36,38,-1,40,42,44,46,48,50,52,54,-1,-1,-1,-1,-1,-1,-1,-1,-1,-1,-1,-1,-1,-1,-1,-1,-1,-1,-1,-1,-1,-1,-1,-1],"split_conditions":[1.92E1,7.35E0,6.49E0,1.977251E-2,9.0916397E-4,4.79E0,1.77E1,2.04E1,5.46E0,3.3E0,4.02E0,1.96E0,3.87E0,2.81E0,6.31E0,7.3E0,-1.8090129E-2,2.17E0,4.88E0,1.18E0,4.48E0,1.1E0,2.2797601E-2,6.7E-1,1.62E0,3.45E1,3.07E1,7.32E0,8.5E-1,1.96E0,2.48E0,1.7805142E-2,-2.7034294E-3,-7.1229674E-3,-1.7752342E-2,2.6693236E-2,-1.1060711E-2,-1.2678462E-2,3.0920806E-3,7.667286E-3,-1.098188E-2,1.9767018E-2,-2.9616458E-3,1.8322835E-2,-3.6565457E-3,-7.1055647E-3,1.0169955E-2,3.733009E-4,-1.9174442E-2,-1.2447959E-2,1.30867185E-2,-4.924931E-3,1.40211815E-2,-2.2160228E-2,-6.867961E-3],"split_indices":[3,0,0,0,0,0,6,4,0,2,2,2,0,7,0,6,0,7,2,2,0,2,0,7,2,3,3,0,7,7,7,0,0,0,0,0,0,0,0,0,0,0,0,0,0,0,0,0,0,0,0,0,0,0,0],"split_type":[0,0,0,0,0,0,0,0,0,0,0,0,0,0,0,0,0,0,0,0,0,0,0,0,0,0,0,0,0,0,0,0,0,0,0,0,0,0,0,0,0,0,0,0,0,0,0,0,0,0,0,0,0,0,0],"sum_hessian":[3.77E2,7E0,3.7E2,5E0,2E0,2.1E2,1.6E2,7.3E1,1.37E2,3.5E1,1.25E2,4E1,3.3E1,5.3E1,8.4E1,3.1E1,4E0,1.21E2,4E0,3.5E1,5E0,2.7E1,6E0,2E1,3.3E1,6.5E1,1.9E1,7E0,2.4E1,3.9E1,8.2E1,2E0,2E0,1.7E1,1.8E1,3E0,2E0,8E0,1.9E1,6E0,1.4E1,2.8E1,5E0,3E0,6.2E1,3E0,1.6E1,3E0,4E0,2E0,2.2E1,3.2E1,7E0,6E0,7.6E1],"tree_param":{"num_deleted":"0","num_feature":"10","num_nodes":"55","size_leaf_vector":"1"}},{"base_weights":[-1.4061089E-2,-1.2792861E-1,7.314299E-2,4.597936E-1,-1.5724817E-1,4.9196827E-1,4.569089E-2,-1.5906326E-3,2.33426E-2,-1.0587177E-2,-3.000622E-1,2.7893994E-2,1.0209861E-1,-5.8716226E-2,1.8886667E-1,1.6295594E-1,-2.0729592E-1,-3.460891E-1,2.227986E-1,-1.5400539E-2,3.9280716E-1,5.18346E-2,-3.5398668E-1,1.0343419E-1,8.192669E-1,-1.6827431E-1,7.1172225E-1,2.4387423E-2,-4.0544614E-1,-4.4340461E-1,-4.6171058E-2,-1.3261813E-2,1.7314628E-2,2.3577098E-2,-6.502569E-6,1.5875345E-1,-4.2585748E-1,-4.0783855E-1,9.075823E-3,1.6197391E-1,-2.2227545E-1,2.8759843E-2,5.233773E-3,-7.0556696E-3,1.3363184E-2,1.0601091E-2,2.6741901E-2,-5.0940453E-3,1.689717E-2,-1.4917747E-2,2.5835067E-3,4.332987E-6,-1.6259229E-2,-9.910149E-3,7.2783986E-3,2.0141504E-3,1.4889218E-2,-2.0989638E-2,-4.0549426E-3,-2.1350453E-2,-6.609985E-3,-6.465337E-3,7.035779E-3,-1.6981114E-2,3.1239311E-3],"categories":[],"categories_nodes":[],"categories_segments":[],"categories_sizes":[],"default_left":[0,0,0,0,0,0,0,0,0,0,0,0,0,0,0,0,0,0,0,0,0,0,0,0,0,0,0,0,0,0,0,0,0,0,0,0,0,0,0,0,0,0,0,0,0,0,0,0,0,0,0,0,0,0,0,0,0,0,0,0,0,0,0,0,0],"id":14,"left_children":[1,3,5,7,9,11,13,-1,-1,15,17,-1,19,21,23,25,27,29,31,-1,33,35,37,39,41,43,45,47,49,51,53,-1,-1,-1,-1,55,57,59,-1,61,63,-1,-1,-1,-1,-1,-1,-1,-1,-1,-1,-1,-1,-1,-1,-1,-1,-1,-1,-1,-1,-1,-1,-1,-1],"loss_changes":[3.7329993E0,2.8810766E0,2.4265172E0,1.3470578E0,3.2642815E0,2.124133E0,3.0157526E0,0E0,0E0,2.696501E0,1.9782953E0,0E0,1.6329806E0,3.837509E0,4.493076E0,7.7540207E0,1.7084875E0,2.110155E0,1.9043131E0,0E0,9.2714745E-1,4.4599953E0,1.2547264E0,1.4850912E0,7.315798E-1,1.2135572E0,7.151966E-1,1.979141E0,9.4545126E-1,2.404705E0,1.6393425E0,0E0,0E0,0E0,0E0,2.162356E0,1.1788847E0,1.5523634E0,0E0,1.8307188E0,1.4054146E0,0E0,0E0,0E0,0E0,0E0,0E0,0E0,0E0,0E0,0E0,0E0,0E0,0E0,0E0,0E0,0E0,0E0,0E0,0E0,0E0,0E0,0E0,0E0,0E0],"parents":[2147483647,0,0,1,1,2,2,3,3,4,4,5,5,6,6,9,9,10,10,12,12,13,13,14,14,15,15,16,16,17,17,18,18,20,20,21,21,22,22,23,23,24,24,25,25,26,26,27,27,28,28,29,29,30,30,35,35,36,36,37,37,39,39,40,40],"right_children":[2,4,6,8,10,12,14,-1,-1,16,18,-1,20,22,24,26,28,30,32,-1,34,36,38,40,42,44,46,48,50,52,54,-1,-1,-1,-1,56,58,60,-1,62,64,-1,-1,-1,-1,-1,-1,-1,-1,-1,-1,-1,-1,-1,-1,-1,-1,-1,-1,-1,-1,-1,-1,-1,-1],"split_conditions":[5.9583332E1,1.5845E0,6.0587E1,1.33E0,1.44E0,2.4932E0,1.46E0,-1.5906326E-3,2.33426E-2,4.6153847E1,3.3861E0,2.7893994E-2,6.78E0,8.577319E1,8.706896E1,3.84755E1,6.56E0,5.3658535E1,1.8E0,-1.5400539E-2,1.77E1,7.34E0,7.14E0,7.55E0,2.9671E0,3.2874E0,3.38E1,1.33E0,3.1475E0,2.0550848E1,3.84E1,-1.3261813E-2,1.7314628E-2,2.3577098E-2,-6.502569E-6,6.64E0,7.1993126E1,3.81E1,9.075823E-3,1.6481E0,2.8771E0,2.8759843E-2,5.233773E-3,-7.0556696E-3,1.3363184E-2,1.0601091E-2,2.6741901E-2,-5.0940453E-3,1.689717E-2,-1.4917747E-2,2.5835067E-3,4.332987E-6,-1.6259229E-2,-9.910149E-3,7.2783986E-3,2.0141504E-3,1.4889218E-2,-2.0989638E-2,-4.0549426E-3,-2.1350453E-2,-6.609985E-3,-6.465337E-3,7.035779E-3,-1.6981114E-2,3.1239311E-3],"split_indices":[9,8,9,2,2,8,2,0,0,9,8,0,0,9,9,9,0,9,2,0,6,0,0,0,8,8,6,2,8,9,6,0,0,0,0,0,9,6,0,8,8,0,0,0,0,0,0,0,0,0,0,0,0,0,0,0,0,0,0,0,0,0,0,0,0],"split_type":[0,0,0,0,0,0,0,0,0,0,0,0,0,0,0,0,0,0,0,0,0,0,0,0,0,0,0,0,0,0,0,0,0,0,0,0,0,0,0,0,0,0,0,0,0,0,0,0,0,0,0,0,0,0,0,0,0,0,0,0,0,0,0,0,0],"sum_hessian":[3.74E2,1.62E2,2.12E2,7E0,1.55E2,1.2E1,2E2,3E0,4E0,7.7E1,7.8E1,5E0,7E0,1.16E2,8.4E1,4.1E1,3.6E1,7.2E1,6E0,2E0,5E0,8.5E1,3.1E1,7.5E1,9E0,2.6E1,1.5E1,1.7E1,1.9E1,5.4E1,1.8E1,2E0,4E0,2E0,3E0,7E1,1.5E1,2.9E1,2E0,6.4E1,1.1E1,7E0,2E0,2.4E1,2E0,6E0,9E0,1.3E1,4E0,1.6E1,3E0,1E1,4.4E1,9E0,9E0,5.6E1,1.4E1,7E0,8E0,1E1,1.9E1,1E1,5.4E1,5E0,6E0],"tree_param":{"num_deleted":"0","num_feature":"10","num_nodes":"65","size_leaf_vector":"1"}},{"base_weights":[-9.577577E-4,4.647672E-2,-1.9005893E-1,-3.9079987E-2,1.5042923E-1,-6.7682767E-1,-8.821437E-2,-5.9320517E-3,-5.0863874E-1,3.47927E-1,1.0267345E-3,-3.86553E-1,-2.2886649E-2,5.113116E-1,-2.5106043E-1,-3.7376143E-2,4.1481462E-1,-6.1234397E-1,-8.3930313E-4,5.815485E-1,6.8504974E-2,-4.2026304E-2,1.9398507E-2,-1.517751E-2,-4.1501387E-3,6.1094286E-3,7.127815E-1,-3.6865628E-1,2.679482E-1,-1.2538576E-1,1.1651794E-1,6.298176E-1,3.084756E-2,-6.7890114E-1,-7.5878752E-3,-1.5433207E-2,7.4932075E-1,-9.5795065E-2,5.750901E-1,1.7631014E-1,-1.3598312E-1,-1.3465043E-2,1.3770514E-2,6.5215887E-3,2.428371E-2,-4.644287E-1,-5.6531444E-2,-8.302472E-3,5.409255E-1,-4.8940105E-4,-1.6652284E-2,5.048201E-4,1.5140633E-2,7.184808E-3,2.2141453E-2,1.6086921E-2,-1.4544544E-2,-8.07432E-3,-2.3669254E-2,7.356559E-3,-1.0121691E-2,-8.852048E-3,2.5588987E-2,-5.4380144E-3,1.0024383E-2,-4.0967697E-3,2.6611846E-2,-1.5149939E-2,1.0389668E-2,-8.12856E-3,4.9731503E-3,-9.119529E-3,-1.878E-2,1.6072646E-2,-7.430368E-3,3.8429424E-3,2.0413104E-2],"categories":[],"categories_nodes":[],"categories_segments":[],"categories_sizes":[],"default_left":[0,0,0,0,0,0,0,0,0,0,0,0,0,0,0,0,0,0,0,0,0,0,0,0,0,0,0,0,0,0,0,0,0,0,0,0,0,0,0,0,0,0,0,0,0,0,0,0,0,0,0,0,0,0,0,0,0,0,0,0,0,0,0,0,0,0,0,0,0,0,0,0,0,0,0,0,0],"id":15,"left_children":[1,3,5,7,9,11,13,15,17,19,21,23,-1,25,27,29,31,33,-1,35,37,39,-1,-1,-1,41,43,45,47,49,51,53,55,57,-1,59,61,63,65,67,69,-1,-1,-1,-1,71,73,-1,75,-1,-1,-1,-1,-1,-1,-1,-1,-1,-1,-1,-1,-1,-1,-1,-1,-1,-1,-1,-1,-1,-1,-1,-1,-1,-1,-1,-1],"loss_changes":[3.3994615E0,2.7007108E0,3.7079754E0,2.5963213E0,4.042055E0,2.9859066E-2,6.3767185E0,2.0926137E0,5.3118753E-1,3.8116217E0,2.22295E0,7.815218E-2,0E0,1.4206078E0,3.2114778E0,2.0056012E0,8.886664E-1,4.358077E-2,0E0,3.216587E0,2.3855858E0,1.5625402E0,0E0,0E0,0E0,1.2362616E0,3.0296087E-1,1.229249E0,1.6366005E0,4.396476E0,2.0811396E0,1.1895776E-1,1.5630181E0,1.0337734E-1,0E0,7.540827E-1,2.957839E0,8.690251E-1,1.6752357E0,2.838997E0,2.2034743E0,0E0,0E0,0E0,0E0,6.3924885E-1,1.3780496E0,0E0,3.1599617E-1,0E0,0E0,0E0,0E0,0E0,0E0,0E0,0E0,0E0,0E0,0E0,0E0,0E0,0E0,0E0,0E0,0E0,0E0,0E0,0E0,0E0,0E0,0E0,0E0,0E0,0E0,0E0,0E0],"parents":[2147483647,0,0,1,1,2,2,3,3,4,4,5,5,6,6,7,7,8,8,9,9,10,10,11,11,13,13,14,14,15,15,16,16,17,17,19,19,20,20,21,21,25,25,26,26,27,27,28,28,29,29,30,30,31,31,32,32,33,33,35,35,36,36,37,37,38,38,39,39,40,40,45,45,46,46,48,48],"right_children":[2,4,6,8,10,12,14,16,18,20,22,24,-1,26,28,30,32,34,-1,36,38,40,-1,-1,-1,42,44,46,48,50,52,54,56,58,-1,60,62,64,66,68,70,-1,-1,-1,-1,72,74,-1,76,-1,-1,-1,-1,-1,-1,-1,-1,-1,-1,-1,-1,-1,-1,-1,-1,-1,-1,-1,-1,-1,-1,-1,-1,-1,-1,-1,-1],"split_conditions":[7.38E0,4.06E0,2.34E0,3.74E0,6.03E0,4.7005444E1,3.42E0,3.0584E0,8.799213E1,5.75E0,1.095E1,4.1527E1,-2.2886649E-2,2.4184E0,3.5002E0,2.33E0,7.6104416E1,3.98E0,-8.3930313E-4,1.7224E0,5.25E0,2.1637E0,1.9398507E-2,-1.517751E-2,-4.1501387E-3,4.4E-1,7.46E0,7.3333336E1,5.55E0,3.98E0,4.07E0,6.36E0,5.71E0,3.84E0,-7.5878752E-3,8.648649E1,3.752122E1,7.02E0,6.15E0,6.67E0,7.02E0,-1.3465043E-2,1.3770514E-2,6.5215887E-3,2.428371E-2,2.6751E0,2.81E0,-8.302472E-3,2.38E0,-4.8940105E-4,-1.6652284E-2,5.048201E-4,1.5140633E-2,7.184808E-3,2.2141453E-2,1.6086921E-2,-1.4544544E-2,-8.07432E-3,-2.3669254E-2,7.356559E-3,-1.0121691E-2,-8.852048E-3,2.5588987E-2,-5.4380144E-3,1.0024383E-2,-4.0967697E-3,2.6611846E-2,-1.5149939E-2,1.0389668E-2,-8.12856E-3,4.9731503E-3,-9.119529E-3,-1.878E-2,1.6072646E-2,-7.430368E-3,3.8429424E-3,2.0413104E-2],"split_indices":[0,7,1,7,7,9,1,8,9,0,1,9,0,8,8,7,9,7,0,8,7,8,0,0,0,7,0,9,1,1,1,0,0,7,0,9,9,0,0,7,0,0,0,0,0,8,7,0,7,0,0,0,0,0,0,0,0,0,0,0,0,0,0,0,0,0,0,0,0,0,0,0,0,0,0,0,0],"split_type":[0,0,0,0,0,0,0,0,0,0,0,0,0,0,0,0,0,0,0,0,0,0,0,0,0,0,0,0,0,0,0,0,0,0,0,0,0,0,0,0,0,0,0,0,0,0,0,0,0,0,0,0,0,0,0,0,0,0,0,0,0,0,0,0,0,0,0,0,0,0,0,0,0,0,0,0,0],"sum_hessian":[3.77E2,3.02E2,7.5E1,1.66E2,1.36E2,1.2E1,6.3E1,1.56E2,1E1,5.8E1,7.8E1,4E0,8E0,1.3E1,5E1,1.46E2,1E1,8E0,2E0,3.1E1,2.7E1,7.4E1,4E0,2E0,2E0,4E0,9E0,4.1E1,9E0,9.3E1,5.3E1,6E0,4E0,6E0,2E0,7E0,2.4E1,2.1E1,6E0,2.2E1,5.2E1,2E0,2E0,2E0,7E0,3.1E1,1E1,3E0,6E0,7.5E1,1.8E1,4.3E1,1E1,2E0,4E0,2E0,2E0,2E0,4E0,4E0,3E0,2E0,2.2E1,1.8E1,3E0,2E0,4E0,4E0,1.8E1,3.6E1,1.6E1,1.7E1,1.4E1,2E0,8E0,2E0,4E0],"tree_param":{"num_deleted":"0","num_feature":"10","num_nodes":"77","size_leaf_vector":"1"}},{"base_weights":[-1.3778858E-2,1.354797E-2,-3.6649308E-1,2.4017718E-1,-1.8239014E-2,-4.2999488E-1,8.545586E-3,5.4980004E-1,8.768062E-2,-5.661357E-2,2.3932646E-1,-4.8365954E-1,3.7429773E-3,3.143134E-1,2.4341898E-2,4.7587296E-1,-5.1154997E-2,-3.0908192E-2,-5.207748E-1,3.4115076E-1,-3.9453647E-1,2.5135642E-3,-5.416917E-1,1.9629063E-2,-8.853801E-2,1.8597178E-2,8.7547896E-4,8.9515455E-2,-1.726415E-2,-1.8176533E-2,-1.4620073E-2,-9.179344E-2,-2.0495638E-2,-7.355357E-2,5.3428835E-1,-1.840493E-2,8.677226E-4,-1.7192846E-2,-7.948635E-3,7.339016E-3,-1.1765917E-2,-5.8334963E-3,1.8122753E-2,-3.8764267E-3,1.973197E-3,-1.2943631E-2,8.353959E-3,1.2520127E-2,-1.11349905E-2,1.1675024E-3,1.9878032E-2],"categories":[],"categories_nodes":[],"categories_segments":[],"categories_sizes":[],"default_left":[0,0,0,0,0,0,0,0,0,0,0,0,0,0,0,0,0,0,0,0,0,0,0,0,0,0,0,0,0,0,0,0,0,0,0,0,0,0,0,0,0,0,0,0,0,0,0,0,0,0,0],"id":16,"left_children":[1,3,5,7,9,11,-1,13,15,17,19,21,-1,23,-1,25,27,29,31,33,35,-1,37,-1,39,-1,-1,41,-1,-1,43,45,-1,47,49,-1,-1,-1,-1,-1,-1,-1,-1,-1,-1,-1,-1,-1,-1,-1,-1],"loss_changes":[3.6194255E0,2.5185275E0,1.2392495E0,1.9820988E0,3.0479248E0,8.0462027E-1,0E0,6.0740185E-1,1.641191E0,3.1815293E0,2.7163029E0,8.027773E-1,0E0,1.2906152E0,0E0,4.966148E-1,1.7478987E0,2.3792887E0,9.12699E-1,2.8426232E0,5.7407373E-1,0E0,3.0655384E-2,0E0,6.0179836E-1,0E0,0E0,2.8937802E0,0E0,0E0,2.302437E0,7.489572E-1,0E0,1.9080473E0,1.4997125E0,0E0,0E0,0E0,0E0,0E0,0E0,0E0,0E0,0E0,0E0,0E0,0E0,0E0,0E0,0E0,0E0],"parents":[2147483647,0,0,1,1,2,2,3,3,4,4,5,5,7,7,8,8,9,9,10,10,11,11,13,13,15,15,16,16,17,17,18,18,19,19,20,20,22,22,24,24,27,27,30,30,31,31,33,33,34,34],"right_children":[2,4,6,8,10,12,-1,14,16,18,20,22,-1,24,-1,26,28,30,32,34,36,-1,38,-1,40,-1,-1,42,-1,-1,44,46,-1,48,50,-1,-1,-1,-1,-1,-1,-1,-1,-1,-1,-1,-1,-1,-1,-1,-1],"split_conditions":[7.79E0,1.43E1,8.256705E1,8.45E0,2.36E0,9.21E0,8.545586E-3,1.48E0,1.92E1,2.07E0,5.83E0,1.58E0,3.7429773E-3,3.36E1,2.4341898E-2,7.35E0,1.187E1,1.53E1,3.271028E1,2.43E0,7.39E0,2.5135642E-3,6.27E0,1.9629063E-2,5.47E0,1.8597178E-2,8.7547896E-4,1.053E1,-1.726415E-2,-1.8176533E-2,2.67E0,2.6694916E1,-2.0495638E-2,6.0587E1,3.7820515E1,-1.840493E-2,8.677226E-4,-1.7192846E-2,-7.948635E-3,7.339016E-3,-1.1765917E-2,-5.8334963E-3,1.8122753E-2,-3.8764267E-3,1.973197E-3,-1.2943631E-2,8.353959E-3,1.2520127E-2,-1.11349905E-2,1.1675024E-3,1.9878032E-2],"split_indices":[0,6,9,1,2,7,0,2,3,2,7,1,0,3,0,0,7,6,9,1,7,0,1,0,0,0,0,7,0,0,7,9,0,9,9,0,0,0,0,0,0,0,0,0,0,0,0,0,0,0,0],"split_type":[0,0,0,0,0,0,0,0,0,0,0,0,0,0,0,0,0,0,0,0,0,0,0,0,0,0,0,0,0,0,0,0,0,0,0,0,0,0,0,0,0,0,0,0,0,0,0,0,0,0,0],"sum_hessian":[3.74E2,3.48E2,2.6E1,4.2E1,3.06E2,2.4E1,2E0,1.3E1,2.9E1,2.67E2,3.9E1,2.2E1,2E0,8E0,5E0,7E0,2.2E1,2.54E2,1.3E1,3.4E1,5E0,2E0,2E1,4E0,4E0,5E0,2E0,1.8E1,4E0,6E0,2.48E2,4E0,9E0,1.1E1,2.3E1,3E0,2E0,1.7E1,3E0,2E0,2E0,1.2E1,6E0,1.02E2,1.46E2,2E0,2E0,4E0,7E0,5E0,1.8E1],"tree_param":{"num_deleted":"0","num_feature":"10","num_nodes":"51","size_leaf_vector":"1"}},{"base_weights":[-4.730126E-3,2.038067E-2,-3.6340818E-1,9.276571E-3,7.6916254E-1,-4.3265128E-1,7.965323E-3,-1.0232247E-2,4.0375036E-1,4.1711153E-3,3.428701E-2,-5.104323E-1,6.903174E-3,6.069215E-3,-5.227051E-1,5.253646E-1,3.1126225E-2,-3.8411987E-1,-1.9556578E-2,-9.3009666E-2,7.002605E-2,-5.631721E-3,-1.7489545E-2,1.9744799E-2,2.0781897E-1,1.0800404E-2,-9.244092E-3,-1.5087076E-2,2.660027E-4,-1.20136095E-2,1.5170887E-4,-9.761703E-4,6.810026E-3,1.43725425E-2,-3.9815945E-3],"categories":[],"categories_nodes":[],"categories_segments":[],"categories_sizes":[],"default_left":[0,0,0,0,0,0,0,0,0,0,0,0,0,0,0,0,0,0,0,0,0,0,0,0,0,0,0,0,0,0,0,0,0,0,0],"id":17,"left_children":[1,3,5,7,9,11,-1,13,15,-1,-1,17,-1,19,21,23,25,27,-1,29,31,-1,-1,-1,33,-1,-1,-1,-1,-1,-1,-1,-1,-1,-1],"loss_changes":[3.3038554E0,2.8447552E0,1.1600332E0,2.6129794E0,1.0186028E0,1.2515507E0,0E0,2.7098868E0,7.087095E-1,0E0,0E0,1.0694504E-1,0E0,2.0025961E0,9.248567E-2,3.6924505E-1,6.6882896E-1,6.1129916E-1,0E0,3.740624E0,3.0986118E0,0E0,0E0,0E0,5.254667E-1,0E0,0E0,0E0,0E0,0E0,0E0,0E0,0E0,0E0,0E0],"parents":[2147483647,0,0,1,1,2,2,3,3,4,4,5,5,7,7,8,8,11,11,13,13,14,14,15,15,16,16,17,17,19,19,20,20,24,24],"right_children":[2,4,6,8,10,12,-1,14,16,-1,-1,18,-1,20,22,24,26,28,-1,30,32,-1,-1,-1,34,-1,-1,-1,-1,-1,-1,-1,-1,-1,-1],"split_conditions":[7.73E0,9.473684E1,3.7203E0,3.3861E0,6.02E1,7.4054985E1,7.965323E-3,3.2362E0,7.55E0,4.1711153E-3,3.428701E-2,2.6751E0,6.903174E-3,1.26E0,3.265E0,5.43E1,3.8107E0,2.5282E0,-1.9556578E-2,1.7869E0,7E1,-5.631721E-3,-1.7489545E-2,1.9744799E-2,6.97E0,1.0800404E-2,-9.244092E-3,-1.5087076E-2,2.660027E-4,-1.20136095E-2,1.5170887E-4,-9.761703E-4,6.810026E-3,1.43725425E-2,-3.9815945E-3],"split_indices":[0,9,8,8,3,9,0,8,0,0,0,8,0,2,8,3,8,8,0,8,9,0,0,0,0,0,0,0,0,0,0,0,0,0,0],"split_type":[0,0,0,0,0,0,0,0,0,0,0,0,0,0,0,0,0,0,0,0,0,0,0,0,0,0,0,0,0,0,0,0,0,0,0],"sum_hessian":[3.65E2,3.42E2,2.3E1,3.38E2,4E0,2.1E1,2E0,3.23E2,1.5E1,2E0,2E0,1.9E1,2E0,3.14E2,9E0,1.1E1,4E0,1.2E1,7E0,1.23E2,1.91E2,2E0,7E0,7E0,4E0,2E0,2E0,9E0,3E0,2.9E1,9.4E1,1.16E2,7.5E1,2E0,2E0],"tree_param":{"num_deleted":"0","num_feature":"10","num_nodes":"35","size_leaf_vector":"1"}},{"base_weights":[2.7148463E-3,-1.9570982E-1,3.6598828E-2,-2.4240781E-1,1.3808745E-2,2.0147095E-2,2.4464997E-2,7.060784E-3,-2.7646214E-1,2.712911E-1,-5.170753E-3,-4.9191573E-1,-1.5709324E-1,-7.7534296E-2,4.414917E-1,-1.4431125E-1,7.7254176E-2,-1.8976675E-3,-5.448534E-1,-2.4036016E-1,3.5727352E-1,3.0587515E-1,-1.5357688E-2,-4.0748534E-3,5.029426E-1,-2.4072333E-1,1.4408478E-2,-2.2789381E-2,3.0925852E-1,-1.7755134E-2,-8.030598E-3,-9.591767E-3,1.0068148E-2,1.602829E-2,1.8353843E-3,1.5023657E-2,-3.6281669E-3,1.6850648E-2,-1.1028296E-3,5.1292563E-3,-8.774004E-3,1.0732045E-2,-3.236454E-3,1.5361587E-2,-2.0492284E-3,1.8943252E-2,-1.8598277E-3],"categories":[],"categories_nodes":[],"categories_segments":[],"categories_sizes":[],"default_left":[0,0,0,0,0,0,0,0,0,0,0,0,0,0,0,0,0,0,0,0,0,0,0,0,0,0,0,0,0,0,0,0,0,0,0,0,0,0,0,0,0,0,0,0,0,0,0],"id":18,"left_children":[1,3,5,7,-1,-1,9,-1,11,13,15,17,19,21,23,25,27,-1,29,31,33,35,-1,-1,37,39,41,43,45,-1,-1,-1,-1,-1,-1,-1,-1,-1,-1,-1,-1,-1,-1,-1,-1,-1,-1],"loss_changes":[2.535168E0,1.7964451E0,2.4644616E0,9.111099E-1,0E0,0E0,2.3202188E0,0E0,1.1829276E0,2.052821E0,3.268244E0,3.5130358E-1,1.4992554E0,2.155169E0,8.842807E-1,1.6255333E0,4.1617346E0,0E0,3.6910534E-2,1.4329407E0,2.293607E-1,6.429073E-1,0E0,0E0,6.864586E-1,1.4559834E0,1.7599976E0,3.1024566E0,6.4981623E0,0E0,0E0,0E0,0E0,0E0,0E0,0E0,0E0,0E0,0E0,0E0,0E0,0E0,0E0,0E0,0E0,0E0,0E0],"parents":[2147483647,0,0,1,1,2,2,3,3,6,6,8,8,9,9,10,10,11,11,12,12,13,13,14,14,15,15,16,16,18,18,19,19,20,20,21,21,24,24,25,25,26,26,27,27,28,28],"right_children":[2,4,6,8,-1,-1,10,-1,12,14,16,18,20,22,24,26,28,-1,30,32,34,36,-1,-1,38,40,42,44,46,-1,-1,-1,-1,-1,-1,-1,-1,-1,-1,-1,-1,-1,-1,-1,-1,-1,-1],"split_conditions":[3.9779007E1,3.3861E0,1.8E-1,1.5351812E1,1.3808745E-2,2.0147095E-2,3.36E1,7.060784E-3,5.27E1,6.25E0,5.67E1,5.95E0,7.4E0,6.0507248E1,1.8004E0,6.9758064E1,4.53E0,-1.8976675E-3,9.21E0,4.95E0,1.9E0,7.5E0,-1.5357688E-2,-4.0748534E-3,2.16E0,7.2E-1,7.6056335E1,4.7649574E1,5.98E0,-1.7755134E-2,-8.030598E-3,-9.591767E-3,1.0068148E-2,1.602829E-2,1.8353843E-3,1.5023657E-2,-3.6281669E-3,1.6850648E-2,-1.1028296E-3,5.1292563E-3,-8.774004E-3,1.0732045E-2,-3.236454E-3,1.5361587E-2,-2.0492284E-3,1.8943252E-2,-1.8598277E-3],"split_indices":[9,8,7,9,0,0,3,0,3,7,3,0,0,9,8,9,7,0,7,7,2,0,0,0,2,7,9,9,7,0,0,0,0,0,0,0,0,0,0,0,0,0,0,0,0,0,0],"split_type":[0,0,0,0,0,0,0,0,0,0,0,0,0,0,0,0,0,0,0,0,0,0,0,0,0,0,0,0,0,0,0,0,0,0,0,0,0,0,0,0,0,0,0,0,0,0,0],"sum_hessian":[3.75E2,5.4E1,3.21E2,5.1E1,3E0,5E0,3.16E2,3E0,4.8E1,3.3E1,2.83E2,1.6E1,3.2E1,1.1E1,2.2E1,1.05E2,1.78E2,2E0,1.4E1,2.8E1,4E0,6E0,5E0,2E0,2E1,6.5E1,4E1,1.25E2,5.3E1,1.1E1,3E0,2.5E1,3E0,2E0,2E0,4E0,2E0,1.8E1,2E0,7E0,5.8E1,1E1,3E1,9E0,1.16E2,2.8E1,2.5E1],"tree_param":{"num_deleted":"0","num_feature":"10","num_nodes":"47","size_leaf_vector":"1"}},{"base_weights":[2.1999818E-3,2.0475541E-1,-3.0706154E-2,4.785104E-1,4.0934194E-2,-3.6177534E-1,8.14487E-3,6.743884E-1,1.2487953E-1,-1.9995186E-1,3.4332758E-1,-4.194972E-1,4.847472E-3,-2.4704598E-2,2.5675765E-1,2.2619497E-2,5.5282842E-3,4.3434632E-1,-1.6070416E-2,-6.7403145E-2,-1.672823E-2,-8.163958E-3,4.5894688E-1,-6.7064226E-1,-2.3880047E-1,-2.0694044E-1,3.142363E-2,3.497992E-1,-1.5157299E-2,1.4039557E-3,1.8492617E-2,4.163932E-1,-3.5094064E-1,4.7168196E-3,5.3374004E-1,-8.161185E-3,-2.1694764E-2,2.8301066E-1,-3.9681748E-1,-1.11894675E-1,-2.1676192E-2,1.4810322E-1,-1.0815343E-1,6.187421E-2,5.978664E-1,4.586851E-3,1.5297555E-2,-1.3819986E-2,1.7592334E-3,1.866912E-2,3.5896872E-3,-1.8753314E-3,1.6025864E-2,3.236422E-3,-1.5959462E-2,-5.342773E-3,1.5982294E-2,3.0862452E-3,1.5757443E-2,3.471538E-3,-6.2742312E-3,-7.0052906E-3,8.5422695E-3,-3.573291E-3,2.3174541E-2],"categories":[],"categories_nodes":[],"categories_segments":[],"categories_sizes":[],"default_left":[0,0,0,0,0,0,0,0,0,0,0,0,0,0,0,0,0,0,0,0,0,0,0,0,0,0,0,0,0,0,0,0,0,0,0,0,0,0,0,0,0,0,0,0,0,0,0,0,0,0,0,0,0,0,0,0,0,0,0,0,0,0,0,0,0],"id":19,"left_children":[1,3,5,7,9,11,13,15,17,19,21,23,-1,25,27,-1,-1,29,-1,31,-1,-1,33,35,37,39,41,43,-1,-1,-1,45,47,-1,49,-1,-1,51,53,55,-1,57,59,61,63,-1,-1,-1,-1,-1,-1,-1,-1,-1,-1,-1,-1,-1,-1,-1,-1,-1,-1,-1,-1],"loss_changes":[2.4324627E0,2.2676032E0,4.041733E0,1.2318845E0,2.4724467E0,1.0646863E0,2.3093803E0,3.2918358E-1,1.868042E0,8.6314505E-1,1.1922792E0,1.2012835E0,0E0,2.5636463E0,2.5163589E0,0E0,0E0,3.9452732E-1,0E0,2.2037454E0,0E0,0E0,2.0944667E-1,5.4471016E-2,1.6789491E0,2.810478E0,3.1428907E0,2.1057503E0,0E0,0E0,0E0,6.9898486E-2,4.7642994E-1,0E0,2.9226613E-1,0E0,0E0,4.6734217E-1,1.0806506E0,2.2712297E0,0E0,1.7370193E0,2.0137262E0,1.053965E0,2.0951648E0,0E0,0E0,0E0,0E0,0E0,0E0,0E0,0E0,0E0,0E0,0E0,0E0,0E0,0E0,0E0,0E0,0E0,0E0,0E0,0E0],"parents":[2147483647,0,0,1,1,2,2,3,3,4,4,5,5,6,6,7,7,8,8,9,9,10,10,11,11,13,13,14,14,17,17,19,19,22,22,23,23,24,24,25,25,26,26,27,27,31,31,32,32,34,34,37,37,38,38,39,39,41,41,42,42,43,43,44,44],"right_children":[2,4,6,8,10,12,14,16,18,20,22,24,-1,26,28,-1,-1,30,-1,32,-1,-1,34,36,38,40,42,44,-1,-1,-1,46,48,-1,50,-1,-1,52,54,56,-1,58,60,62,64,-1,-1,-1,-1,-1,-1,-1,-1,-1,-1,-1,-1,-1,-1,-1,-1,-1,-1,-1,-1],"split_conditions":[1.5E1,8.45E0,4.19E1,3.36E1,1.053E1,2.99E0,2.36E0,3.54E0,1.6E0,2.23E0,1.24E1,3.06E0,4.847472E-3,1.7869E0,7.63E1,2.2619497E-2,5.5282842E-3,1.37E0,-1.6070416E-2,2.6062E0,-1.672823E-2,-8.163958E-3,1.27E1,8.9E-1,5.25E0,1.691E0,3.31E0,2.71E0,-1.5157299E-2,1.4039557E-3,1.8492617E-2,5.17E0,1.095E1,4.7168196E-3,3.22E1,-8.161185E-3,-2.1694764E-2,1.24E0,3.32E1,1.6778E0,-2.1676192E-2,3.16E0,1.17E0,2.2098E0,1.25E1,4.586851E-3,1.5297555E-2,-1.3819986E-2,1.7592334E-3,1.866912E-2,3.5896872E-3,-1.8753314E-3,1.6025864E-2,3.236422E-3,-1.5959462E-2,-5.342773E-3,1.5982294E-2,3.0862452E-3,1.5757443E-2,3.471538E-3,-6.2742312E-3,-7.0052906E-3,8.5422695E-3,-3.573291E-3,2.3174541E-2],"split_indices":[6,1,3,3,7,2,2,8,7,2,4,7,0,8,3,0,0,2,0,8,0,0,4,7,7,8,1,7,0,0,0,7,1,0,3,0,0,2,3,8,0,1,2,8,4,0,0,0,0,0,0,0,0,0,0,0,0,0,0,0,0,0,0,0,0],"split_type":[0,0,0,0,0,0,0,0,0,0,0,0,0,0,0,0,0,0,0,0,0,0,0,0,0,0,0,0,0,0,0,0,0,0,0,0,0,0,0,0,0,0,0,0,0,0,0,0,0,0,0,0,0,0,0,0,0,0,0,0,0,0,0,0,0],"sum_hessian":[3.63E2,5E1,3.13E2,1.8E1,3.2E1,3.2E1,2.81E2,1.1E1,7E0,1.8E1,1.4E1,2.9E1,3E0,2.49E2,3.2E1,9E0,2E0,5E0,2E0,1.4E1,4E0,2E0,1.2E1,1.1E1,1.8E1,5.8E1,1.91E2,2.9E1,3E0,2E0,3E0,5E0,9E0,3E0,9E0,2E0,9E0,4E0,1.4E1,5E1,8E0,1.04E2,8.7E1,1.4E1,1.5E1,2E0,3E0,7E0,2E0,7E0,2E0,2E0,2E0,3E0,1.1E1,4.6E1,4E0,9.4E1,1E1,2.7E1,6E1,6E0,8E0,3E0,1.2E1],"tree_param":{"num_deleted":"0","num_feature":"10","num_nodes":"65","size_leaf_vector":"1"}},{"base_weights":[2.0393815E-2,2.4151427E-1,-1.4358394E-2,-5.330485E-2,4.727923E-1,-1.6989277E-1,8.017745E-2,-3.9492095E-1,3.2421315E-1,5.3445816E-1,-4.6202837E-4,-7.782738E-2,-3.8073477E-1,-6.0099095E-2,2.3498793E-1,-1.452165E-1,-5.016211E-1,1.8119205E-2,-1.3229395E-1,2.252163E-2,3.5465235E-1,-1.4315681E-1,6.4258176E-1,-5.082797E-1,-1.2579104E-1,-1.97393E-1,2.7140957E-1,1.7864549E-1,2.6567291E-2,-7.4611735E-3,2.003485E-4,-1.7150037E-2,-5.8296127E-3,4.4951155E-3,-1.1109812E-2,-3.6455807E-3,4.8382187E-1,-3.109658E-1,-2.6956024E-2,2.2916047E-2,6.7873104E-3,-1.3122816E-1,-6.336374E-1,-3.4509963E-1,2.9412264E-1,8.3895914E-2,-3.582062E-1,-1.600849E-1,5.2964765E-1,-1.310515E-1,2.5799698E-1,3.5073343E-3,1.7794058E-2,-1.5264543E-2,4.6621733E-3,-1.1297386E-2,2.4186652E-3,-1.5467478E-2,1.659316E-2,-1.9917829E-2,-8.129209E-3,-1.4956394E-2,-5.558554E-3,1.2962914E-3,1.340984E-2,1.34836845E-2,-3.71562E-3,-1.3228989E-2,2.7007544E-3,2.7251537E-3,-1.5886359E-2,2.3047201E-2,-8.761766E-3,7.6301335E-3,-1.39439E-2,2.253727E-2,5.672388E-3],"categories":[],"categories_nodes":[],"categories_segments":[],"categories_sizes":[],"default_left":[0,0,0,0,0,0,0,0,0,0,0,0,0,0,0,0,0,0,0,0,0,0,0,0,0,0,0,0,0,0,0,0,0,0,0,0,0,0,0,0,0,0,0,0,0,0,0,0,0,0,0,0,0,0,0,0,0,0,0,0,0,0,0,0,0,0,0,0,0,0,0,0,0,0,0,0,0],"id":20,"left_children":[1,3,5,7,9,11,13,15,17,19,-1,21,23,25,27,29,31,-1,33,-1,35,37,39,41,43,45,47,49,-1,-1,-1,-1,-1,-1,-1,-1,51,53,55,-1,-1,57,59,61,63,65,67,69,71,73,75,-1,-1,-1,-1,-1,-1,-1,-1,-1,-1,-1,-1,-1,-1,-1,-1,-1,-1,-1,-1,-1,-1,-1,-1,-1,-1],"loss_changes":[2.7160697E0,3.298091E0,4.512915E0,2.9652956E0,8.210621E-1,2.2220736E0,4.161932E0,2.468785E-1,1.4847404E0,6.6700315E-1,0E0,3.951231E0,1.0741506E0,4.6505003E0,3.1774678E0,8.025833E-2,6.1116695E-2,0E0,3.9127156E-1,0E0,9.813967E-1,1.4735823E0,1.806531E-1,1.003974E0,1.2986804E0,3.2869697E0,3.4276376E0,2.1226783E0,0E0,0E0,0E0,0E0,0E0,0E0,0E0,0E0,4.1195536E-1,2.9395266E0,1.7605066E0,0E0,0E0,2.126358E0,6.8411827E-3,1.2833405E-1,1.7247331E-1,2.106185E0,1.746099E0,1.160578E0,3.9493766E0,2.433408E0,2.1694913E0,0E0,0E0,0E0,0E0,0E0,0E0,0E0,0E0,0E0,0E0,0E0,0E0,0E0,0E0,0E0,0E0,0E0,0E0,0E0,0E0,0E0,0E0,0E0,0E0,0E0,0E0],"parents":[2147483647,0,0,1,1,2,2,3,3,4,4,5,5,6,6,7,7,8,8,9,9,11,11,12,12,13,13,14,14,15,15,16,16,18,18,20,20,21,21,22,22,23,23,24,24,25,25,26,26,27,27,36,36,37,37,38,38,41,41,42,42,43,43,44,44,45,45,46,46,47,47,48,48,49,49,50,50],"right_children":[2,4,6,8,10,12,14,16,18,20,-1,22,24,26,28,30,32,-1,34,-1,36,38,40,42,44,46,48,50,-1,-1,-1,-1,-1,-1,-1,-1,52,54,56,-1,-1,58,60,62,64,66,68,70,72,74,76,-1,-1,-1,-1,-1,-1,-1,-1,-1,-1,-1,-1,-1,-1,-1,-1,-1,-1,-1,-1,-1,-1,-1,-1,-1,-1],"split_conditions":[3.39E1,7.03E0,1.49E1,1.29E1,7.7938515E1,5.98E0,1.37E0,2.6751E0,8.39E0,8.45E0,-4.6202837E-4,5.17E0,2.9274E0,4.9E0,8.881119E1,2.2401E0,3.3636E0,1.8119205E-2,1.58E0,2.252163E-2,8.85E0,2.3571E0,5.63E0,7.3E0,9.55E0,5.7425743E1,1.65E1,4.4491524E1,2.6567291E-2,-7.4611735E-3,2.003485E-4,-1.7150037E-2,-5.8296127E-3,4.4951155E-3,-1.1109812E-2,-3.6455807E-3,4.0037952E1,6.495727E1,2.34E0,2.2916047E-2,6.7873104E-3,7.1E0,7.7938515E1,3.2247E0,3.993174E1,2.24E0,7.7E1,2.4E0,1.99E1,3.31E0,1.41E0,3.5073343E-3,1.7794058E-2,-1.5264543E-2,4.6621733E-3,-1.1297386E-2,2.4186652E-3,-1.5467478E-2,1.659316E-2,-1.9917829E-2,-8.129209E-3,-1.4956394E-2,-5.558554E-3,1.2962914E-3,1.340984E-2,1.34836845E-2,-3.71562E-3,-1.3228989E-2,2.7007544E-3,2.7251537E-3,-1.5886359E-2,2.3047201E-2,-8.761766E-3,7.6301335E-3,-1.39439E-2,2.253727E-2,5.672388E-3],"split_indices":[3,7,4,4,9,7,2,8,1,1,0,7,8,7,9,8,8,0,2,0,7,8,1,7,7,9,4,9,0,0,0,0,0,0,0,0,9,9,1,0,0,7,9,8,9,1,3,8,4,1,2,0,0,0,0,0,0,0,0,0,0,0,0,0,0,0,0,0,0,0,0,0,0,0,0,0,0],"split_type":[0,0,0,0,0,0,0,0,0,0,0,0,0,0,0,0,0,0,0,0,0,0,0,0,0,0,0,0,0,0,0,0,0,0,0,0,0,0,0,0,0,0,0,0,0,0,0,0,0,0,0,0,0,0,0,0,0,0,0,0,0,0,0,0,0,0,0,0,0,0,0,0,0,0,0,0,0],"sum_hessian":[3.52E2,4.7E1,3.05E2,2.1E1,2.6E1,1.15E2,1.9E2,1.1E1,1E1,2.3E1,3E0,8.1E1,3.4E1,1E2,9E1,4E0,7E0,6E0,4E0,9E0,1.4E1,7.5E1,6E0,2.2E1,1.2E1,7.1E1,2.9E1,8.4E1,6E0,2E0,2E0,5E0,2E0,2E0,2E0,3E0,1.1E1,3E1,4.5E1,4E0,2E0,6E0,1.6E1,8E0,4E0,2.6E1,4.5E1,1.1E1,1.8E1,1.7E1,6.7E1,3E0,8E0,2.1E1,9E0,1E1,3.5E1,4E0,2E0,1.4E1,2E0,3E0,5E0,2E0,2E0,9E0,1.7E1,3.8E1,7E0,7E0,4E0,1.4E1,4E0,8E0,9E0,7E0,6E1],"tree_param":{"num_deleted":"0","num_feature":"10","num_nodes":"77","size_leaf_vector":"1"}},{"base_weights":[-6.256269E-4,-1.19316906E-1,8.63446E-2,-2.1519569E-1,4.6836887E-2,-2.1397512E-2,2.4452789E-1,-5.1517045E-1,-9.3079746E-2,1.8459219E-1,-2.3101555E-1,-2.103106E-1,9.175052E-2,3.0008647E-1,-4.4123355E-1,-5.568196E-1,-3.4697421E-3,3.578551E-1,-2.1587075E-1,3.185272E-1,-1.9746624E-1,-3.1621557E-1,1.0715693E-2,-5.4531693E-1,-1.2130124E-1,6.7988425E-1,2.7792914E-2,1.9263773E-1,5.2410537E-1,-2.0961614E-2,4.0496774E-3,-6.12219E-1,-3.189901E-1,-6.596462E-3,4.5609486E-1,1.667227E-1,-3.9220586E-1,-3.3046007E-2,5.2380884E-1,-4.2566243E-1,6.3640974E-2,-1.9446118E-2,-1.3866588E-1,-4.5968704E-3,-1.8725557E-2,-1.8867048E-2,-3.5874212E-1,7.597649E-4,2.6815485E-2,5.6837285E-1,-4.5237124E-2,1.2166431E-1,1.8364254E-2,6.2642705E-1,-1.4075098E-2,-1.0826772E-2,-2.015805E-2,-1.9405956E-3,-1.9094981E-2,3.1182524E-3,1.920559E-2,-5.9400913E-3,1.3499341E-2,-1.3432199E-2,1.3258849E-2,9.08475E-3,-1.2581635E-2,1.9968431E-2,-5.2309628E-3,-1.7013462E-2,-6.3947123E-3,1.3165201E-2,-7.0100566E-3,-6.991941E-3,3.9599296E-3,-1.1581721E-2,4.1819597E-3,-1.5540096E-2,8.751268E-3,7.011431E-3,2.3680702E-2,1.8494878E-2,-2.911127E-3,1.1602812E-2,-4.338635E-4,3.6020387E-2,1.3546277E-2],"categories":[],"categories_nodes":[],"categories_segments":[],"categories_sizes":[],"default_left":[0,0,0,0,0,0,0,0,0,0,0,0,0,0,0,0,0,0,0,0,0,0,0,0,0,0,0,0,0,0,0,0,0,0,0,0,0,0,0,0,0,0,0,0,0,0,0,0,0,0,0,0,0,0,0,0,0,0,0,0,0,0,0,0,0,0,0,0,0,0,0,0,0,0,0,0,0,0,0,0,0,0,0,0,0,0,0],"id":21,"left_children":[1,3,5,7,9,11,13,15,17,19,21,23,25,27,29,31,-1,33,35,37,39,41,-1,43,45,47,49,51,53,-1,-1,55,57,-1,59,61,63,65,67,69,71,-1,73,-1,-1,75,77,-1,-1,79,81,83,-1,85,-1,-1,-1,-1,-1,-1,-1,-1,-1,-1,-1,-1,-1,-1,-1,-1,-1,-1,-1,-1,-1,-1,-1,-1,-1,-1,-1,-1,-1,-1,-1,-1,-1],"loss_changes":[3.8812804E0,2.543048E0,3.7035637E0,3.6518493E0,2.3009067E0,2.7980645E0,3.4852014E0,4.181409E-1,4.1193147E0,2.1097388E0,1.1152512E0,1.3949685E0,3.0655851E0,1.8728218E0,1.1329089E0,1.4727402E-1,0E0,1.008395E0,3.9783401E0,2.1824555E0,6.825099E-1,9.7111595E-1,0E0,2.135899E-1,9.6611434E-1,1.0977857E0,2.9866045E0,1.6226218E0,2.9363756E0,0E0,0E0,5.7668686E-2,5.2403325E-1,0E0,8.4105563E-1,2.051997E0,2.0508738E0,1.6841335E0,1.9971542E0,5.947256E-2,7.718446E-1,0E0,3.6291814E-1,0E0,0E0,1.7391113E0,1.3942047E0,0E0,0E0,4.8110342E-1,2.3564541E0,1.8099227E0,0E0,1.8681097E0,0E0,0E0,0E0,0E0,0E0,0E0,0E0,0E0,0E0,0E0,0E0,0E0,0E0,0E0,0E0,0E0,0E0,0E0,0E0,0E0,0E0,0E0,0E0,0E0,0E0,0E0,0E0,0E0,0E0,0E0,0E0,0E0,0E0],"parents":[2147483647,0,0,1,1,2,2,3,3,4,4,5,5,6,6,7,7,8,8,9,9,10,10,11,11,12,12,13,13,14,14,15,15,17,17,18,18,19,19,20,20,21,21,23,23,24,24,25,25,26,26,27,27,28,28,31,31,32,32,34,34,35,35,36,36,37,37,38,38,39,39,40,40,42,42,45,45,46,46,49,49,50,50,51,51,53,53],"right_children":[2,4,6,8,10,12,14,16,18,20,22,24,26,28,30,32,-1,34,36,38,40,42,-1,44,46,48,50,52,54,-1,-1,56,58,-1,60,62,64,66,68,70,72,-1,74,-1,-1,76,78,-1,-1,80,82,84,-1,86,-1,-1,-1,-1,-1,-1,-1,-1,-1,-1,-1,-1,-1,-1,-1,-1,-1,-1,-1,-1,-1,-1,-1,-1,-1,-1,-1,-1,-1,-1,-1,-1,-1],"split_conditions":[5.9583332E1,5.99E1,4.53E0,2.2123E0,1.64E0,1.27E0,1.187E1,5.82E1,2.1E0,4.89E0,3.31E0,1.4994E0,1.33E0,1.71E1,1.446E1,5.0729927E1,-3.4697421E-3,2.273E0,3.36E1,1.6E0,1.14E0,2.41E0,1.0715693E-2,1.2222E0,3.17E0,3.81E1,2.29E1,1.071E1,7.63E1,-2.0961614E-2,4.0496774E-3,4E1,7.51E0,-6.596462E-3,4.67E1,6.67E0,1.62E1,9.2E-1,1.92E1,6.12E0,1.28E0,-1.9446118E-2,5.74E0,-4.5968704E-3,-1.8725557E-2,7E-1,4.17E0,7.597649E-4,2.6815485E-2,1.29E1,2.6E-1,2.2167E0,1.8364254E-2,7.1875E1,-1.4075098E-2,-1.0826772E-2,-2.015805E-2,-1.9405956E-3,-1.9094981E-2,3.1182524E-3,1.920559E-2,-5.9400913E-3,1.3499341E-2,-1.3432199E-2,1.3258849E-2,9.08475E-3,-1.2581635E-2,1.9968431E-2,-5.2309628E-3,-1.7013462E-2,-6.3947123E-3,1.3165201E-2,-7.0100566E-3,-6.991941E-3,3.9599296E-3,-1.1581721E-2,4.1819597E-3,-1.5540096E-2,8.751268E-3,7.011431E-3,2.3680702E-2,1.8494878E-2,-2.911127E-3,1.1602812E-2,-4.338635E-4,3.6020387E-2,1.3546277E-2],"split_indices":[9,3,7,8,2,2,7,3,7,7,2,8,2,4,7,9,0,8,3,7,2,7,0,8,7,6,6,7,3,0,0,3,7,0,3,7,4,7,4,7,2,0,7,0,0,7,7,0,0,4,7,8,0,9,0,0,0,0,0,0,0,0,0,0,0,0,0,0,0,0,0,0,0,0,0,0,0,0,0,0,0,0,0,0,0,0,0],"split_type":[0,0,0,0,0,0,0,0,0,0,0,0,0,0,0,0,0,0,0,0,0,0,0,0,0,0,0,0,0,0,0,0,0,0,0,0,0,0,0,0,0,0,0,0,0,0,0,0,0,0,0,0,0,0,0,0,0,0,0,0,0,0,0,0,0,0,0,0,0,0,0,0,0,0,0,0,0,0,0,0,0,0,0,0,0,0,0],"sum_hessian":[3.74E2,1.58E2,2.16E2,1E2,5.8E1,1.29E2,8.7E1,2.8E1,7.2E1,3.9E1,1.9E1,4.8E1,8.1E1,8.1E1,6E0,2.5E1,3E0,1.5E1,5.7E1,2.9E1,1E1,1.7E1,2E0,9E0,3.9E1,7E0,7.4E1,5.6E1,2.5E1,4E0,2E0,1.9E1,6E0,2E0,1.3E1,1.8E1,3.9E1,1.1E1,1.8E1,5E0,5E0,5E0,1.2E1,2E0,7E0,2.8E1,1.1E1,2E0,5E0,8E0,6.6E1,4.9E1,7E0,2.3E1,2E0,5E0,1.4E1,4E0,2E0,5E0,8E0,8E0,1E1,3.7E1,2E0,6E0,5E0,1.5E1,3E0,2E0,3E0,2E0,3E0,9E0,3E0,8E0,2E1,9E0,2E0,4E0,4E0,4E0,6.2E1,1.6E1,3.3E1,4E0,1.9E1],"tree_param":{"num_deleted":"0","num_feature":"10","num_nodes":"87","size_leaf_vector":"1"}},{"base_weights":[-2.0407084E-2,3.052811E-3,-3.209916E-1,2.0659927E-1,-2.5343303E-2,-4.559222E-1,-1.5464704E-2,1.11774325E-1,1.751341E-2,-1.7290822E-1,2.6894506E-2,-1.8549472E-2,-3.459004E-1,-2.522693E-1,6.732985E-3,2.8235587E-1,-1.8550016E-1,-4.8427704E-1,-7.661577E-2,-9.224692E-2,1.3841748E-1,4.40836E-3,-4.4886735E-1,-7.185721E-4,-1.1894893E-2,1.7273583E-2,1.0703601E-1,1.3887972E-1,-4.0559757E-1,-6.027073E-1,-2.1207127E-1,2.1402691E-1,-2.9033273E-1,3.795952E-1,-1.2944378E-1,9.2902136E-1,9.32134E-2,-5.071166E-3,-1.4768081E-2,-4.1631763E-3,1.4966328E-2,-7.34943E-3,1.176166E-2,-2.8013426E-3,-1.4823231E-2,-2.057996E-2,-1.0466991E-2,-1.6370563E-2,5.2368203E-3,-2.3891717E-4,1.9026835E-2,-1.0638318E-2,4.9877004E-3,-4.6876185E-3,2.1970663E-2,-1.7036598E-3,-9.632625E-3,9.689342E-3,4.2822156E-2,1.4396768E-2,7.705712E-4],"categories":[],"categories_nodes":[],"categories_segments":[],"categories_sizes":[],"default_left":[0,0,0,0,0,0,0,0,0,0,0,0,0,0,0,0,0,0,0,0,0,0,0,0,0,0,0,0,0,0,0,0,0,0,0,0,0,0,0,0,0,0,0,0,0,0,0,0,0,0,0,0,0,0,0,0,0,0,0,0,0],"id":22,"left_children":[1,3,5,7,9,11,13,15,-1,17,19,-1,21,23,-1,25,27,29,31,33,35,-1,37,-1,-1,-1,39,41,43,45,47,49,51,53,55,57,59,-1,-1,-1,-1,-1,-1,-1,-1,-1,-1,-1,-1,-1,-1,-1,-1,-1,-1,-1,-1,-1,-1,-1,-1],"loss_changes":[2.5325336E0,1.935732E0,1.0647972E0,1.4011612E0,2.27094E0,1.0772753E-1,5.678971E-1,1.7765014E0,0E0,2.271547E0,2.909336E0,0E0,7.256677E-1,1.5515041E-1,0E0,1.0701417E0,9.844663E-1,4.52456E-1,3.7890553E0,1.9095473E0,3.9518554E0,0E0,5.0383806E-2,0E0,0E0,0E0,1.5140009E0,6.791512E-1,1.7493784E-1,1.43351555E-2,9.981564E-1,2.43035E0,1.0861576E0,1.6266438E0,1.3602318E0,1.3512325E0,2.8077192E0,0E0,0E0,0E0,0E0,0E0,0E0,0E0,0E0,0E0,0E0,0E0,0E0,0E0,0E0,0E0,0E0,0E0,0E0,0E0,0E0,0E0,0E0,0E0,0E0],"parents":[2147483647,0,0,1,1,2,2,3,3,4,4,5,5,6,6,7,7,9,9,10,10,12,12,13,13,15,15,16,16,17,17,18,18,19,19,20,20,22,22,26,26,27,27,28,28,29,29,30,30,31,31,32,32,33,33,34,34,35,35,36,36],"right_children":[2,4,6,8,10,12,14,16,-1,18,20,-1,22,24,-1,26,28,30,32,34,36,-1,38,-1,-1,-1,40,42,44,46,48,50,52,54,56,58,60,-1,-1,-1,-1,-1,-1,-1,-1,-1,-1,-1,-1,-1,-1,-1,-1,-1,-1,-1,-1,-1,-1,-1,-1],"split_conditions":[7.79E0,3.39E1,2.9274E0,3.3861E0,1.42E1,2.95E0,4.37E0,7.29E0,1.751341E-2,2.34E0,3.22E0,-1.8549472E-2,1.86E0,3.17E0,6.732985E-3,8.45E0,2.6062E0,5.49E1,3.28E0,4.69E1,3.57E0,4.40836E-3,3.67E0,-7.185721E-4,-1.1894893E-2,1.7273583E-2,1.053E1,2.2401E0,7.35E0,7.57E0,6.9E0,7.53E0,1.122E1,2.07E0,3.4E0,5.13E0,1.97E0,-5.071166E-3,-1.4768081E-2,-4.1631763E-3,1.4966328E-2,-7.34943E-3,1.176166E-2,-2.8013426E-3,-1.4823231E-2,-2.057996E-2,-1.0466991E-2,-1.6370563E-2,5.2368203E-3,-2.3891717E-4,1.9026835E-2,-1.0638318E-2,4.9877004E-3,-4.6876185E-3,2.1970663E-2,-1.7036598E-3,-9.632625E-3,9.689342E-3,4.2822156E-2,1.4396768E-2,7.705712E-4],"split_indices":[0,3,8,8,4,1,7,0,0,1,7,0,7,7,0,1,8,3,7,3,7,0,1,0,0,0,7,8,1,0,0,0,7,8,1,0,1,0,0,0,0,0,0,0,0,0,0,0,0,0,0,0,0,0,0,0,0,0,0,0,0],"split_type":[0,0,0,0,0,0,0,0,0,0,0,0,0,0,0,0,0,0,0,0,0,0,0,0,0,0,0,0,0,0,0,0,0,0,0,0,0,0,0,0,0,0,0,0,0,0,0,0,0,0,0,0,0,0,0,0,0,0,0,0,0],"sum_hessian":[3.58E2,3.33E2,2.5E1,4E1,2.93E2,1.7E1,8E0,3.3E1,7E0,7.6E1,2.17E2,5E0,1.2E1,4E0,4E0,2.1E1,1.2E1,1.7E1,5.9E1,1.05E2,1.12E2,2E0,1E1,2E0,2E0,7E0,1.4E1,5E0,7E0,1.1E1,6E0,2.5E1,3.4E1,7E0,9.8E1,5E0,1.07E2,2E0,8E0,9E0,5E0,2E0,3E0,2E0,5E0,7E0,4E0,3E0,3E0,1.7E1,8E0,3E1,4E0,3E0,4E0,7.2E1,2.6E1,3E0,2E0,1.5E1,9.2E1],"tree_param":{"num_deleted":"0","num_feature":"10","num_nodes":"61","size_leaf_vector":"1"}},{"base_weights":[-3.9710112E-2,-1.5535061E-1,2.5040252E-2,3.2767132E-2,-2.6723233E-1,-6.4873405E-2,1.8024339E-1,-7.657066E-2,4.1744047E-1,-4.6643477E-2,-3.7666297E-1,-2.4052118E-1,3.9701883E-2,4.357342E-1,9.725482E-3,-2.5942403E-1,9.251432E-2,1.5864251E-2,2.7103382E-3,-1.912613E-1,4.1453308E-1,-4.3964636E-1,-1.6530715E-1,-3.8574442E-1,-6.3705094E-2,6.490579E-1,-1.744405E-2,1.3442206E-1,6.6653734E-1,8.0575E-2,-4.5724642E-1,-3.3886212E-1,8.315994E-3,3.7079072E-1,-2.5066882E-1,1.5657853E-1,-3.3148742E-1,-5.6264745E-3,2.7389461E-2,-5.199743E-2,-5.179271E-1,-3.6968926E-1,2.1219708E-2,-1.4752468E-1,-5.158966E-1,1.7604634E-2,-2.0865628E-1,9.632075E-4,2.5480712E-2,-8.375043E-2,4.4225857E-1,7.308219E-1,-1.2527971E-1,1.1004974E0,3.2168594E-1,-9.171986E-2,2.5685766E-1,-2.1947535E-2,4.571974E-3,-1.2360971E-2,4.1982974E-3,-5.4183076E-3,1.7239766E-2,-1.4213936E-2,6.0742283E-3,-8.698905E-3,1.1795642E-2,4.3286188E-3,-1.3571418E-2,-4.9926843E-3,5.825574E-3,-1.6237205E-2,-6.233068E-3,-3.0759498E-3,-2.1696106E-2,6.0595376E-3,-1.0425822E-2,-1.789089E-2,-1.9517085E-3,-1.02046495E-2,1.4043802E-2,-3.976909E-3,1.5234929E-2,2.2316845E-2,-2.0545183E-3,7.5416607E-3,2.8999433E-2,-1.2075459E-2,1.9095743E-3,1.6422365E-2,3.9685983E-2,-4.6670134E-3,2.0544145E-2,2.5731132E-3,-1.3722653E-2,-8.43611E-3,1.1548018E-2],"categories":[],"categories_nodes":[],"categories_segments":[],"categories_sizes":[],"default_left":[0,0,0,0,0,0,0,0,0,0,0,0,0,0,0,0,0,0,0,0,0,0,0,0,0,0,0,0,0,0,0,0,0,0,0,0,0,0,0,0,0,0,0,0,0,0,0,0,0,0,0,0,0,0,0,0,0,0,0,0,0,0,0,0,0,0,0,0,0,0,0,0,0,0,0,0,0,0,0,0,0,0,0,0,0,0,0,0,0,0,0,0,0,0,0,0,0],"id":23,"left_children":[1,3,5,7,9,11,13,15,17,19,21,23,25,27,29,31,33,-1,-1,35,37,39,41,43,45,47,49,51,53,55,57,59,-1,61,63,65,67,-1,-1,69,71,73,-1,75,77,-1,79,-1,-1,81,83,85,87,89,91,93,95,-1,-1,-1,-1,-1,-1,-1,-1,-1,-1,-1,-1,-1,-1,-1,-1,-1,-1,-1,-1,-1,-1,-1,-1,-1,-1,-1,-1,-1,-1,-1,-1,-1,-1,-1,-1,-1,-1,-1,-1],"loss_changes":[2.6919973E0,2.7238111E0,3.2352705E0,2.092871E0,1.9377046E0,2.7097063E0,3.698852E0,1.229793E0,3.529328E-1,1.9467261E0,6.461663E-1,1.3877058E0,3.2497885E0,2.2748919E0,1.7572488E0,9.0387166E-1,2.098441E0,0E0,0E0,1.1249807E0,2.2719798E0,1.2172327E0,2.7583916E0,8.540368E-1,2.574102E0,9.6132827E-1,2.658424E0,2.5697346E0,2.4893675E0,1.4206985E0,1.2822356E0,6.5324426E-1,0E0,1.4527463E0,1.1070259E0,8.536029E-1,9.855597E-1,0E0,0E0,2.5767383E-1,1.3339233E-1,1.059177E0,0E0,9.090289E-1,6.504741E-1,0E0,2.1171498E0,0E0,0E0,2.2619715E0,1.7455883E0,3.223095E-1,6.541658E-1,2.5975704E-1,2.1861286E0,1.5970383E0,1.693241E0,0E0,0E0,0E0,0E0,0E0,0E0,0E0,0E0,0E0,0E0,0E0,0E0,0E0,0E0,0E0,0E0,0E0,0E0,0E0,0E0,0E0,0E0,0E0,0E0,0E0,0E0,0E0,0E0,0E0,0E0,0E0,0E0,0E0,0E0,0E0,0E0,0E0,0E0,0E0,0E0],"parents":[2147483647,0,0,1,1,2,2,3,3,4,4,5,5,6,6,7,7,8,8,9,9,10,10,11,11,12,12,13,13,14,14,15,15,16,16,19,19,20,20,21,21,22,22,23,23,24,24,25,25,26,26,27,27,28,28,29,29,30,30,31,31,33,33,34,34,35,35,36,36,39,39,40,40,41,41,43,43,44,44,46,46,49,49,50,50,51,51,52,52,53,53,54,54,55,55,56,56],"right_children":[2,4,6,8,10,12,14,16,18,20,22,24,26,28,30,32,34,-1,-1,36,38,40,42,44,46,48,50,52,54,56,58,60,-1,62,64,66,68,-1,-1,70,72,74,-1,76,78,-1,80,-1,-1,82,84,86,88,90,92,94,96,-1,-1,-1,-1,-1,-1,-1,-1,-1,-1,-1,-1,-1,-1,-1,-1,-1,-1,-1,-1,-1,-1,-1,-1,-1,-1,-1,-1,-1,-1,-1,-1,-1,-1,-1,-1,-1,-1,-1,-1],"split_conditions":[1.42E1,3.69E1,4.53E0,3.3861E0,2.21E0,1.27E0,5.98E0,1.28E1,3.8107E0,1.96E0,7.27758E1,2.23E0,1.33E0,1.68E1,2E1,3.26E1,1.34E1,1.5864251E-2,2.7103382E-3,7.5E-1,5.05071E1,2.63E1,5.49E1,1.65E1,2.41E0,5.359116E1,2.6303E0,1.47E1,1.79E1,6.6034485E1,2.11E1,8.256705E1,8.315994E-3,3.3271027E1,1.41E1,5E-1,1.08E0,-5.6264745E-3,2.7389461E-2,8.12E0,3.2311E0,1.28E1,2.1219708E-2,7.1E-1,7.51E1,1.7604634E-2,1.21E0,9.632075E-4,2.5480712E-2,3.48E0,2.23E0,3.9E1,2.0614E0,1.7E1,7.14E1,5.569853E1,1.5E1,-2.1947535E-2,4.571974E-3,-1.2360971E-2,4.1982974E-3,-5.4183076E-3,1.7239766E-2,-1.4213936E-2,6.0742283E-3,-8.698905E-3,1.1795642E-2,4.3286188E-3,-1.3571418E-2,-4.9926843E-3,5.825574E-3,-1.6237205E-2,-6.233068E-3,-3.0759498E-3,-2.1696106E-2,6.0595376E-3,-1.0425822E-2,-1.789089E-2,-1.9517085E-3,-1.02046495E-2,1.4043802E-2,-3.976909E-3,1.5234929E-2,2.2316845E-2,-2.0545183E-3,7.5416607E-3,2.8999433E-2,-1.2075459E-2,1.9095743E-3,1.6422365E-2,3.9685983E-2,-4.6670134E-3,2.0544145E-2,2.5731132E-3,-1.3722653E-2,-8.43611E-3,1.1548018E-2],"split_indices":[4,3,7,8,7,2,7,4,8,7,9,7,2,4,4,3,4,0,0,7,9,6,3,4,7,9,8,4,4,9,4,9,0,9,4,7,2,0,0,7,8,4,0,7,3,0,2,0,0,2,7,3,8,4,3,9,4,0,0,0,0,0,0,0,0,0,0,0,0,0,0,0,0,0,0,0,0,0,0,0,0,0,0,0,0,0,0,0,0,0,0,0,0,0,0,0,0],"split_type":[0,0,0,0,0,0,0,0,0,0,0,0,0,0,0,0,0,0,0,0,0,0,0,0,0,0,0,0,0,0,0,0,0,0,0,0,0,0,0,0,0,0,0,0,0,0,0,0,0,0,0,0,0,0,0,0,0,0,0,0,0,0,0,0,0,0,0,0,0,0,0,0,0,0,0,0,0,0,0,0,0,0,0,0,0,0,0,0,0,0,0,0,0,0,0,0,0],"sum_hessian":[3.58E2,1.28E2,2.3E2,4.8E1,8E1,1.46E2,8.4E1,3.8E1,1E1,2.7E1,5.3E1,5.4E1,9.2E1,3.3E1,5.1E1,1.8E1,2E1,7E0,3E0,2.1E1,6E0,4E1,1.3E1,2.9E1,2.5E1,7E0,8.5E1,1.5E1,1.8E1,4.5E1,6E0,1.6E1,2E0,1.1E1,9E0,6E0,1.5E1,3E0,3E0,7E0,3.3E1,1.1E1,2E0,1.1E1,1.8E1,4E0,2.1E1,2E0,5E0,7.5E1,1E1,4E0,1.1E1,7E0,1.1E1,2.3E1,2.2E1,4E0,2E0,1.4E1,2E0,3E0,8E0,6E0,3E0,2E0,4E0,3E0,1.2E1,5E0,2E0,3E1,3E0,7E0,4E0,4E0,7E0,1.5E1,3E0,1.8E1,3E0,7E1,5E0,6E0,4E0,2E0,2E0,4E0,7E0,3E0,4E0,5E0,6E0,1.6E1,7E0,4E0,1.8E1],"tree_param":{"num_deleted":"0","num_feature":"10","num_nodes":"97","size_leaf_vector":"1"}},{"base_weights":[-1.1581559E-3,-1.0185139E-1,7.4367136E-2,7.330694E-2,-2.2934154E-1,5.249761E-1,4.762726E-2,-3.6430072E-2,2.8058177E-1,8.495808E-2,-3.323535E-1,3.3040114E-2,9.912837E-2,-2.0164746E-1,9.836988E-2,-2.8668356E-1,2.049141E-1,2.27366E-2,3.9462898E-2,2.3048565E-1,-1.5424314E-2,-2.2035715E-1,-4.869566E-1,-1.22869015E-2,2.1306328E-2,-1.9339329E-2,-8.776382E-2,-1.9922198E-3,2.1527247E-1,-4.2827356E-1,3.0869514E-1,4.6508935E-1,-2.0584017E-1,1.541183E-2,-9.886009E-2,-2.0126882E-1,4.7845104E-1,-4.8787808E-1,-5.9618153E-2,-5.35973E-1,-1.3983214E-3,-1.9595826E-1,1.9123226E-2,1.4757349E-1,-3.7306294E-1,1.5195799E-1,2.534397E-2,-1.5590032E-2,-4.3092454E-3,1.2656457E-2,2.778299E-3,5.62374E-4,2.0591596E-2,-1.3637634E-2,1.0726869E-3,-8.752703E-3,4.071483E-3,8.274079E-3,-1.2187792E-2,1.9758416E-2,6.89814E-3,-6.7506707E-3,-2.0019569E-2,2.3063736E-3,-1.4402781E-2,-1.2472259E-2,-2.1506475E-2,-1.0748482E-2,1.7389337E-3,6.5291235E-3,-2.2942418E-2,-5.9625837E-3,-1.9485448E-2,-7.0254863E-3,7.1857464E-3],"categories":[],"categories_nodes":[],"categories_segments":[],"categories_sizes":[],"default_left":[0,0,0,0,0,0,0,0,0,0,0,0,0,0,0,0,0,0,0,0,0,0,0,0,0,0,0,0,0,0,0,0,0,0,0,0,0,0,0,0,0,0,0,0,0,0,0,0,0,0,0,0,0,0,0,0,0,0,0,0,0,0,0,0,0,0,0,0,0,0,0,0,0,0,0],"id":24,"left_children":[1,3,5,7,9,11,13,15,17,19,21,-1,23,25,27,29,31,-1,33,35,-1,37,39,-1,-1,-1,41,43,45,47,49,51,53,-1,55,57,59,61,63,65,-1,67,-1,69,71,73,-1,-1,-1,-1,-1,-1,-1,-1,-1,-1,-1,-1,-1,-1,-1,-1,-1,-1,-1,-1,-1,-1,-1,-1,-1,-1,-1,-1,-1],"loss_changes":[2.8746164E0,3.6344283E0,2.57763E0,1.5796764E0,3.071638E0,2.836131E0,2.6128507E0,2.8370175E0,2.732185E0,2.210963E0,1.1220593E0,0E0,2.777698E0,1.7091769E0,2.0067017E0,2.0710983E0,2.6605682E0,0E0,1.1660162E0,2.2375007E0,0E0,1.8199587E0,6.009593E-1,0E0,0E0,0E0,2.4003422E0,5.216503E0,3.0204196E0,4.1961455E-1,8.321944E-2,1.4687517E0,6.172197E-1,0E0,6.730815E-1,8.9441013E-1,4.3060637E-1,6.045108E-1,1.6439309E0,2.6748657E-1,0E0,1.0924323E0,0E0,4.449132E0,1.1719937E0,2.5244527E0,0E0,0E0,0E0,0E0,0E0,0E0,0E0,0E0,0E0,0E0,0E0,0E0,0E0,0E0,0E0,0E0,0E0,0E0,0E0,0E0,0E0,0E0,0E0,0E0,0E0,0E0,0E0,0E0,0E0],"parents":[2147483647,0,0,1,1,2,2,3,3,4,4,5,5,6,6,7,7,8,8,9,9,10,10,12,12,13,13,14,14,15,15,16,16,18,18,19,19,21,21,22,22,26,26,27,27,28,28,29,29,30,30,31,31,32,32,34,34,35,35,36,36,37,37,38,38,39,39,41,41,43,43,44,44,45,45],"right_children":[2,4,6,8,10,12,14,16,18,20,22,-1,24,26,28,30,32,-1,34,36,-1,38,40,-1,-1,-1,42,44,46,48,50,52,54,-1,56,58,60,62,64,66,-1,68,-1,70,72,74,-1,-1,-1,-1,-1,-1,-1,-1,-1,-1,-1,-1,-1,-1,-1,-1,-1,-1,-1,-1,-1,-1,-1,-1,-1,-1,-1,-1,-1],"split_conditions":[5.9583332E1,3.41E0,6.0587E1,1.69E1,3.36E1,2.4932E0,1.28E1,2.5467E0,6.71E1,2.11E0,1.6E0,3.3040114E-2,9.68E0,2.6E0,1.39E0,3.12E0,2.23E0,2.27366E-2,1.58E0,2.51E1,-1.5424314E-2,1.15E0,1.046E1,-1.22869015E-2,2.1306328E-2,-1.9339329E-2,5.4E1,8.577319E1,8.881119E1,6.01E1,2.02E0,1.25E0,3.41E0,1.541183E-2,2.41E0,1.92E1,1.38E0,1.47E1,5.7425743E1,6.97E0,-1.3983214E-3,2.8771E0,1.9123226E-2,1.35E0,4.01E0,1.636E0,2.534397E-2,-1.5590032E-2,-4.3092454E-3,1.2656457E-2,2.778299E-3,5.62374E-4,2.0591596E-2,-1.3637634E-2,1.0726869E-3,-8.752703E-3,4.071483E-3,8.274079E-3,-1.2187792E-2,1.9758416E-2,6.89814E-3,-6.7506707E-3,-2.0019569E-2,2.3063736E-3,-1.4402781E-2,-1.2472259E-2,-2.1506475E-2,-1.0748482E-2,1.7389337E-3,6.5291235E-3,-2.2942418E-2,-5.9625837E-3,-1.9485448E-2,-7.0254863E-3,7.1857464E-3],"split_indices":[9,1,9,4,3,8,4,8,3,2,2,0,7,1,2,1,7,0,1,3,0,2,7,0,0,0,3,9,9,3,2,2,7,0,7,3,2,4,9,7,0,8,0,2,1,8,0,0,0,0,0,0,0,0,0,0,0,0,0,0,0,0,0,0,0,0,0,0,0,0,0,0,0,0,0],"split_type":[0,0,0,0,0,0,0,0,0,0,0,0,0,0,0,0,0,0,0,0,0,0,0,0,0,0,0,0,0,0,0,0,0,0,0,0,0,0,0,0,0,0,0,0,0,0,0,0,0,0,0,0,0,0,0,0,0,0,0,0,0,0,0,0,0,0,0,0,0,0,0,0,0,0,0],"sum_hessian":[3.76E2,1.61E2,2.15E2,6.8E1,9.3E1,1.1E1,2.04E2,4.5E1,2.3E1,2.3E1,7E1,4E0,7E0,3.4E1,1.7E2,2.2E1,2.3E1,7E0,1.6E1,1.9E1,4E0,4.2E1,2.8E1,4E0,3E0,6E0,2.8E1,9.2E1,7.8E1,1.8E1,4E0,1.4E1,9E0,3E0,1.3E1,7E0,1.2E1,1.5E1,2.7E1,2.5E1,3E0,2.5E1,3E0,6.6E1,2.6E1,7.2E1,6E0,1.3E1,5E0,2E0,2E0,5E0,9E0,4E0,5E0,7E0,6E0,2E0,5E0,6E0,6E0,7E0,8E0,2.1E1,6E0,1.7E1,8E0,1.5E1,1E1,6.2E1,4E0,1.7E1,9E0,1.3E1,5.9E1],"tree_param":{"num_deleted":"0","num_feature":"10","num_nodes":"75","size_leaf_vector":"1"}},{"base_weights":[-1.4167226E-2,1.3557304E-2,-4.0174395E-1,-8.372455E-2,6.339775E-2,1.9245851E-3,-4.4504598E-1,-2.6914194E-1,-6.3912165E-3,1.5684392E-1,-1.7846916E-2,-5.0487705E-3,-4.781444E-1,-1.07528E-1,-6.1197895E-1,-2.1268873E-1,1.7313686E-1,-9.1536395E-2,2.4918018E-1,1.5714538E-1,-9.60866E-2,-5.1437825E-1,-6.1384356E-3,1.1556281E-1,-5.169742E-1,-1.9784978E-2,-7.9627475E-3,-3.1102052E-1,2.95307E-1,-2.401903E-1,3.2608145E-1,3.5335165E-1,-3.6770064E-1,6.131091E-1,1.3950437E-1,8.002615E-2,2.4357961E-2,-3.2231045E-1,5.5119473E-2,-1.6645597E-2,-7.323633E-3,-2.13196E-3,1.0032079E-2,-2.1504725E-3,-1.90188E-2,3.3568891E-3,-1.2744298E-2,1.9163443E-2,-1.1267582E-2,4.939235E-3,-1.3152265E-2,3.7304526E-3,2.2097476E-2,1.4369928E-2,-5.4975622E-3,6.962074E-3,-1.4839853E-2,-2.0823719E-3,2.8804626E-2,1.0332527E-2,-1.530233E-3,3.3344692E-4,1.8856121E-2,-5.4806364E-3,-1.8310007E-2,-4.6373988E-3,5.9269606E-3],"categories":[],"categories_nodes":[],"categories_segments":[],"categories_sizes":[],"default_left":[0,0,0,0,0,0,0,0,0,0,0,0,0,0,0,0,0,0,0,0,0,0,0,0,0,0,0,0,0,0,0,0,0,0,0,0,0,0,0,0,0,0,0,0,0,0,0,0,0,0,0,0,0,0,0,0,0,0,0,0,0,0,0,0,0,0,0],"id":25,"left_children":[1,3,5,7,9,-1,11,13,15,17,19,-1,21,23,25,27,29,31,33,35,37,39,-1,41,43,-1,-1,45,47,49,51,53,55,57,59,61,-1,63,65,-1,-1,-1,-1,-1,-1,-1,-1,-1,-1,-1,-1,-1,-1,-1,-1,-1,-1,-1,-1,-1,-1,-1,-1,-1,-1,-1,-1],"loss_changes":[4.0242195E0,1.7023078E0,5.3290796E-1,1.7046146E0,1.7641437E0,0E0,1.3021469E-1,1.8734488E0,3.184901E0,2.4997365E0,1.7265173E0,0E0,9.2971325E-2,2.3433352E0,6.1044693E-3,2.089932E0,2.986265E0,3.8157928E0,3.0676904E0,1.9043932E0,2.9937243E0,5.0505638E-2,0E0,7.180729E-1,4.2339206E-1,0E0,0E0,1.6837327E0,1.8529596E0,1.1153666E0,2.7240026E0,8.968426E-1,1.5615976E0,4.3302298E0,2.4379518E0,1.3537633E0,0E0,1.2960083E0,1.6136932E0,0E0,0E0,0E0,0E0,0E0,0E0,0E0,0E0,0E0,0E0,0E0,0E0,0E0,0E0,0E0,0E0,0E0,0E0,0E0,0E0,0E0,0E0,0E0,0E0,0E0,0E0,0E0,0E0],"parents":[2147483647,0,0,1,1,2,2,3,3,4,4,6,6,7,7,8,8,9,9,10,10,12,12,13,13,14,14,15,15,16,16,17,17,18,18,19,19,20,20,21,21,23,23,24,24,27,27,28,28,29,29,30,30,31,31,32,32,33,33,34,34,35,35,37,37,38,38],"right_children":[2,4,6,8,10,-1,12,14,16,18,20,-1,22,24,26,28,30,32,34,36,38,40,-1,42,44,-1,-1,46,48,50,52,54,56,58,60,62,-1,64,66,-1,-1,-1,-1,-1,-1,-1,-1,-1,-1,-1,-1,-1,-1,-1,-1,-1,-1,-1,-1,-1,-1,-1,-1,-1,-1,-1,-1],"split_conditions":[7.79E0,2.0373E0,9.5E-1,1.69E0,6.43E0,1.9245851E-3,1.02E0,2.82E0,6.61E1,5.15E0,2.81E0,-5.0487705E-3,3.3861E0,1.24E0,5.71E0,2.36E0,1.07E0,2.34E0,5.46E0,7.66E0,5.03E0,7.91E0,-6.1384356E-3,4.77E0,5.8E-1,-1.9784978E-2,-7.9627475E-3,4.13E1,7.5E0,1.02E0,4.17E0,2.5811E0,4.48E0,3.03E0,4.06E0,5.86E1,2.4357961E-2,3.85E0,7.02E0,-1.6645597E-2,-7.323633E-3,-2.13196E-3,1.0032079E-2,-2.1504725E-3,-1.90188E-2,3.3568891E-3,-1.2744298E-2,1.9163443E-2,-1.1267582E-2,4.939235E-3,-1.3152265E-2,3.7304526E-3,2.2097476E-2,1.4369928E-2,-5.4975622E-3,6.962074E-3,-1.4839853E-2,-2.0823719E-3,2.8804626E-2,1.0332527E-2,-1.530233E-3,3.3344692E-4,1.8856121E-2,-5.4806364E-3,-1.8310007E-2,-4.6373988E-3,5.9269606E-3],"split_indices":[0,8,1,7,0,0,2,1,3,0,7,0,8,7,0,2,2,1,0,0,1,0,0,0,1,0,0,3,0,2,7,8,0,1,1,3,0,1,0,0,0,0,0,0,0,0,0,0,0,0,0,0,0,0,0,0,0,0,0,0,0,0,0,0,0,0,0],"split_type":[0,0,0,0,0,0,0,0,0,0,0,0,0,0,0,0,0,0,0,0,0,0,0,0,0,0,0,0,0,0,0,0,0,0,0,0,0,0,0,0,0,0,0,0,0,0,0,0,0,0,0,0,0,0,0,0,0,0,0,0,0,0,0,0,0,0,0],"sum_hessian":[3.73E2,3.49E2,2.4E1,1.18E2,2.31E2,2E0,2.2E1,3.4E1,8.4E1,1.07E2,1.24E2,3E0,1.9E1,2.4E1,1E1,3.9E1,4.5E1,2.9E1,7.8E1,3.8E1,8.6E1,1.6E1,3E0,1.6E1,8E0,8E0,2E0,3.3E1,6E0,1.2E1,3.3E1,1.1E1,1.8E1,1.7E1,6.1E1,3.5E1,3E0,3.4E1,5.2E1,1.3E1,3E0,9E0,7E0,2E0,6E0,7E0,2.6E1,4E0,2E0,4E0,8E0,2.3E1,1E1,9E0,2E0,3E0,1.5E1,6E0,1.1E1,2.9E1,3.2E1,3.2E1,3E0,2.4E1,1E1,2.1E1,3.1E1],"tree_param":{"num_deleted":"0","num_feature":"10","num_nodes":"67","size_leaf_vector":"1"}},{"base_weights":[-4.4812975E-3,-1.5496418E-2,5.799603E-1,2.9432361E-3,-3.392595E-1,2.1814205E-2,4.2402097E-3,-9.97926E-2,5.4517217E-2,-4.1670656E-1,7.155275E-3,2.9244298E-1,-1.3097739E-1,-1.3816418E-1,1.18436344E-1,-1.676869E-1,-1.5817273E-2,7.794332E-2,1.6232451E-2,-3.0754656E-1,-5.1310785E-2,1.7362392E-2,-1.8690486E-1,1.4712988E-1,-2.8836054E-1,4.5051603E-3,-3.2486486E-1,9.8500755E-3,-3.880107E-3,-1.6048737E-2,-2.2704976E-3,-2.993878E-3,8.50558E-3,2.0442316E-2,-6.950502E-3,3.6394245E-3,1.7519742E-2,8.562015E-3,-1.8327484E-2,-1.1788096E-2,-4.455146E-3],"categories":[],"categories_nodes":[],"categories_segments":[],"categories_sizes":[],"default_left":[0,0,0,0,0,0,0,0,0,0,0,0,0,0,0,0,0,0,0,0,0,0,0,0,0,0,0,0,0,0,0,0,0,0,0,0,0,0,0,0,0],"id":26,"left_children":[1,3,5,7,9,-1,-1,11,13,15,-1,17,19,21,23,25,-1,27,-1,29,31,-1,33,35,37,-1,39,-1,-1,-1,-1,-1,-1,-1,-1,-1,-1,-1,-1,-1,-1],"loss_changes":[2.435998E0,2.215898E0,3.4911823E-1,1.8705109E0,9.9431753E-1,0E0,0E0,1.4816542E0,2.91063E0,4.0704942E-1,0E0,4.378227E-1,1.5315529E0,2.1697903E0,2.1084485E0,3.9850855E-1,0E0,3.5387447E-1,0E0,1.7522764E0,1.2783344E0,0E0,2.3352575E0,1.8012838E0,2.395194E0,0E0,1.6725659E-3,0E0,0E0,0E0,0E0,0E0,0E0,0E0,0E0,0E0,0E0,0E0,0E0,0E0,0E0],"parents":[2147483647,0,0,1,1,2,2,3,3,4,4,7,7,8,8,9,9,11,11,12,12,13,13,14,14,15,15,17,17,19,19,20,20,22,22,23,23,24,24,26,26],"right_children":[2,4,6,8,10,-1,-1,12,14,16,-1,18,20,22,24,26,-1,28,-1,30,32,-1,34,36,38,-1,40,-1,-1,-1,-1,-1,-1,-1,-1,-1,-1,-1,-1,-1,-1],"split_conditions":[4.4E0,7.84E0,4.88E0,5.423729E1,3.7203E0,2.1814205E-2,4.2402097E-3,1.12E1,1.6E0,1.11E0,7.155275E-3,4.0037952E1,3.21E1,1.3E-1,1.159E1,1.86E0,-1.5817273E-2,2.3271502E1,1.6232451E-2,6.8E0,7.43E0,1.7362392E-2,8.9E0,1.071E1,4.3E0,4.5051603E-3,7.92E0,9.8500755E-3,-3.880107E-3,-1.6048737E-2,-2.2704976E-3,-2.993878E-3,8.50558E-3,2.0442316E-2,-6.950502E-3,3.6394245E-3,1.7519742E-2,8.562015E-3,-1.8327484E-2,-1.1788096E-2,-4.455146E-3],"split_indices":[2,0,2,9,8,0,0,6,7,2,0,9,6,7,7,7,0,9,0,0,0,0,6,7,6,0,0,0,0,0,0,0,0,0,0,0,0,0,0,0,0],"split_type":[0,0,0,0,0,0,0,0,0,0,0,0,0,0,0,0,0,0,0,0,0,0,0,0,0,0,0,0,0,0,0,0,0,0,0,0,0,0,0,0,0],"sum_hessian":[3.76E2,3.7E2,6E0,3.51E2,1.9E1,4E0,2E0,1.17E2,2.34E2,1.7E1,2E0,8E0,1.09E2,5.8E1,1.76E2,6E0,1.1E1,5E0,3E0,3.3E1,7.6E1,3E0,5.5E1,1.65E2,1.1E1,2E0,4E0,2E0,3E0,1.6E1,1.7E1,6.7E1,9E0,2E0,5.3E1,1.57E2,8E0,4E0,7E0,2E0,2E0],"tree_param":{"num_deleted":"0","num_feature":"10","num_nodes":"41","size_leaf_vector":"1"}},{"base_weights":[-1.0438035E-2,5.7534046E-2,-9.575396E-2,3.619947E-2,6.588742E-1,1.5422364E-2,-1.1421277E-1,-1.3768622E-1,1.1904044E-1,2.6455646E-2,2.028452E-3,1.3887364E-2,-1.2818912E-1,3.7056494E-1,-2.1552086E-1,3.3643916E-1,4.0373158E-2,-1.4426538E-1,3.893823E-1,3.0400941E-2,2.3645092E-2,-6.0422343E-1,-7.491483E-2,4.9147195E-1,-1.4582415E-2,5.571482E-1,-1.6236885E-2,-5.731491E-2,-2.6110116E-1,3.5292355E-3,1.593988E-2,-6.2653273E-3,6.0670376E-3,-2.0545578E-2,-6.3384017E-3,6.6354293E-3,-8.310687E-3,8.3644E-3,2.095853E-2,1.6489277E-2,-7.911864E-3,2.1522213E-2,4.1222437E-3,-1.0566523E-2,3.225725E-3,-2.9998232E-4,-1.2903222E-2,-1.1348615E-2,6.444521E-4],"categories":[],"categories_nodes":[],"categories_segments":[],"categories_sizes":[],"default_left":[0,0,0,0,0,0,0,0,0,0,0,0,0,0,0,0,0,0,0,0,0,0,0,0,0,0,0,0,0,0,0,0,0,0,0,0,0,0,0,0,0,0,0,0,0,0,0,0,0],"id":27,"left_children":[1,3,5,7,9,-1,11,13,15,-1,-1,-1,17,19,21,23,25,27,29,31,-1,33,35,37,39,41,43,45,47,-1,-1,-1,-1,-1,-1,-1,-1,-1,-1,-1,-1,-1,-1,-1,-1,-1,-1,-1,-1],"loss_changes":[2.1453772E0,2.618993E0,1.9048276E0,2.897362E0,8.6324906E-1,0E0,1.3499162E0,2.6512349E0,2.3123112E0,0E0,0E0,0E0,1.3625107E0,1.2545259E0,3.0700083E0,1.9662814E0,2.963767E0,1.539351E0,1.3035792E-1,2.8889775E-1,0E0,3.3054495E-1,2.6345367E0,9.064989E-1,1.8318517E0,5.740931E-1,3.8633523E0,1.565558E0,2.1605859E0,0E0,0E0,0E0,0E0,0E0,0E0,0E0,0E0,0E0,0E0,0E0,0E0,0E0,0E0,0E0,0E0,0E0,0E0,0E0,0E0],"parents":[2147483647,0,0,1,1,2,2,3,3,4,4,6,6,7,7,8,8,12,12,13,13,14,14,15,15,16,16,17,17,18,18,19,19,21,21,22,22,23,23,24,24,25,25,26,26,27,27,28,28],"right_children":[2,4,6,8,10,-1,12,14,16,-1,-1,-1,18,20,22,24,26,28,30,32,-1,34,36,38,40,42,44,46,48,-1,-1,-1,-1,-1,-1,-1,-1,-1,-1,-1,-1,-1,-1,-1,-1,-1,-1,-1,-1],"split_conditions":[6.43E0,9.311741E1,1.1E0,4.8E0,9.615385E1,1.5422364E-2,1.01E0,1.3673E0,2.37E0,2.6455646E-2,2.028452E-3,1.3887364E-2,3.9409E0,1.257E0,1.5244E0,5.82E0,6.3E0,2.6842E0,7.1E0,3.23E0,2.3645092E-2,1.38E0,6.707964E1,5.34E0,9.5E-1,4.69E0,5.2713177E1,7.78E0,1.8E0,3.5292355E-3,1.593988E-2,-6.2653273E-3,6.0670376E-3,-2.0545578E-2,-6.3384017E-3,6.6354293E-3,-8.310687E-3,8.3644E-3,2.095853E-2,1.6489277E-2,-7.911864E-3,2.1522213E-2,4.1222437E-3,-1.0566523E-2,3.225725E-3,-2.9998232E-4,-1.2903222E-2,-1.1348615E-2,6.444521E-4],"split_indices":[0,9,6,0,9,0,2,8,1,0,0,0,8,8,8,0,5,8,0,0,0,2,9,0,1,1,9,0,2,0,0,0,0,0,0,0,0,0,0,0,0,0,0,0,0,0,0,0,0],"split_type":[0,0,0,0,0,0,0,0,0,0,0,0,0,0,0,0,0,0,0,0,0,0,0,0,0,0,0,0,0,0,0,0,0,0,0,0,0,0,0,0,0,0,0,0,0,0,0,0,0],"sum_hessian":[3.68E2,2.05E2,1.63E2,1.99E2,6E0,4E0,1.59E2,6.4E1,1.35E2,4E0,2E0,3E0,1.56E2,8E0,5.6E1,3.5E1,1E2,1.52E2,4E0,5E0,3E0,1.4E1,4.2E1,2.4E1,1.1E1,9E0,9.1E1,8.8E1,6.4E1,2E0,2E0,2E0,3E0,1.1E1,3E0,1.7E1,2.5E1,1.3E1,1.1E1,3E0,8E0,6E0,3E0,2.4E1,6.7E1,7.9E1,9E0,4.5E1,1.9E1],"tree_param":{"num_deleted":"0","num_feature":"10","num_nodes":"49","size_leaf_vector":"1"}},{"base_weights":[1.5632528E-3,-1.34616E-2,4.471703E-1,-2.2195635E-2,2.2820469E-2,6.9173956E-1,-6.447097E-3,-3.352692E-1,-2.3856028E-3,6.4719915E-3,2.3907673E-2,-4.0722522E-1,6.966257E-3,1.25037E-2,-3.6985335E-1,-2.1402141E-1,-1.5062769E-2,-7.911618E-2,8.9392945E-2,-6.108877E-1,1.3168007E-2,4.4052154E-3,-1.07634645E-2,-1.411202E-2,-1.2255266E-3,1.573411E-2,1.7103882E-3,-7.846694E-3,-2.051216E-2,-8.485577E-3,6.9567426E-3],"categories":[],"categories_nodes":[],"categories_segments":[],"categories_sizes":[],"default_left":[0,0,0,0,0,0,0,0,0,0,0,0,0,0,0,0,0,0,0,0,0,0,0,0,0,0,0,0,0,0,0],"id":28,"left_children":[1,3,5,7,-1,9,-1,11,13,-1,-1,15,-1,17,19,21,-1,23,25,27,29,-1,-1,-1,-1,-1,-1,-1,-1,-1,-1],"loss_changes":[2.4631505E0,2.4239423E0,2.0917313E0,2.1885054E0,0E0,2.78687E-1,0E0,9.520631E-1,1.8265803E0,0E0,0E0,2.4078631E-1,0E0,2.2683837E0,1.2082212E0,4.7059283E-1,0E0,2.181758E0,2.4354649E0,2.4756908E-2,4.5407087E-1,0E0,0E0,0E0,0E0,0E0,0E0,0E0,0E0,0E0,0E0],"parents":[2147483647,0,0,1,1,2,2,3,3,5,5,7,7,8,8,11,11,13,13,14,14,15,15,17,17,18,18,19,19,20,20],"right_children":[2,4,6,8,-1,10,-1,12,14,-1,-1,16,-1,18,20,22,-1,24,26,28,30,-1,-1,-1,-1,-1,-1,-1,-1,-1,-1],"split_conditions":[4.1E0,9.473684E1,4.88E0,1.19E1,2.2820469E-2,3.9E1,-6.447097E-3,3.7203E0,1.187E1,6.4719915E-3,2.3907673E-2,1.11E0,6.966257E-3,3.22E0,1.446E1,1.86E0,-1.5062769E-2,1.4516E0,3.57E0,5.9583332E1,1.24E1,4.4052154E-3,-1.07634645E-2,-1.411202E-2,-1.2255266E-3,1.573411E-2,1.7103882E-3,-7.846694E-3,-2.051216E-2,-8.485577E-3,6.9567426E-3],"split_indices":[2,9,2,4,0,3,0,8,7,0,0,2,0,7,7,7,0,8,7,9,4,0,0,0,0,0,0,0,0,0,0],"split_type":[0,0,0,0,0,0,0,0,0,0,0,0,0,0,0,0,0,0,0,0,0,0,0,0,0,0,0,0,0,0,0],"sum_hessian":[3.66E2,3.55E2,1.1E1,3.52E2,3E0,8E0,3E0,2E1,3.32E2,2E0,6E0,1.8E1,2E0,3.2E2,1.2E1,7E0,1.1E1,1.46E2,1.74E2,7E0,5E0,2E0,5E0,1.2E1,1.34E2,1.1E1,1.63E2,2E0,5E0,2E0,3E0],"tree_param":{"num_deleted":"0","num_feature":"10","num_nodes":"31","size_leaf_vector":"1"}},{"base_weights":[-9.2288293E-4,2.1444945E-2,-2.2720553E-1,2.2005922E-1,-1.0726536E-2,-2.6837984E-1,8.631664E-3,2.7213696E-1,-2.8223678E-1,-4.3954334E-1,7.3032826E-3,-2.829273E-2,-3.344725E-1,3.5268083E-1,-3.698027E-2,-1.4207721E-2,9.588182E-5,-1.5634114E-2,-6.3148735E-4,-1.0084101E-2,3.221076E-1,2.707592E-1,-1.1851033E-2,2.3801564E-3,-3.7390557E-1,1.8594281E-1,6.2054956E-1,-1.7044703E-2,1.6683345E-1,1.3140089E-2,-1.978639E-1,-8.893192E-2,5.365206E-1,1.5716083E-2,-2.1781242E-3,-1.778561E-2,-2.8015032E-1,1.523494E-2,-5.8759475E-4,7.4623465E-3,1.9966116E-2,1.5298862E-2,-4.2310837E-3,-1.1448557E-3,4.8096846E-3,-1.068996E-2,2.7637852E-2,-8.661553E-3,6.2128236E-3,2.3605268E-2,-1.0701764E-3,4.0774015E-3,-1.0219586E-2],"categories":[],"categories_nodes":[],"categories_segments":[],"categories_sizes":[],"default_left":[0,0,0,0,0,0,0,0,0,0,0,0,0,0,0,0,0,0,0,0,0,0,0,0,0,0,0,0,0,0,0,0,0,0,0,0,0,0,0,0,0,0,0,0,0,0,0,0,0,0,0,0,0],"id":29,"left_children":[1,3,5,7,9,11,-1,13,15,17,19,21,23,25,27,-1,-1,-1,-1,29,31,33,-1,-1,35,37,39,-1,41,43,45,47,49,-1,-1,-1,51,-1,-1,-1,-1,-1,-1,-1,-1,-1,-1,-1,-1,-1,-1,-1,-1],"loss_changes":[1.9130397E0,2.2004223E0,7.980795E-1,1.3324125E0,2.2994626E0,4.9831295E-1,0E0,1.1085317E0,2.746071E-1,3.9878798E-1,1.5687046E0,9.8435783E-1,4.3761086E-1,1.4478502E0,1.177398E0,0E0,0E0,0E0,0E0,1.1888012E0,1.369697E0,4.7257903E-1,0E0,0E0,3.0604506E-1,1.5315697E0,5.189705E-2,0E0,9.170339E-1,1.8409531E0,5.648647E0,4.1464397E-1,1.4603925E0,0E0,0E0,0E0,4.994117E-1,0E0,0E0,0E0,0E0,0E0,0E0,0E0,0E0,0E0,0E0,0E0,0E0,0E0,0E0,0E0,0E0],"parents":[2147483647,0,0,1,1,2,2,3,3,4,4,5,5,7,7,8,8,9,9,10,10,11,11,12,12,13,13,14,14,19,19,20,20,21,21,24,24,25,25,26,26,28,28,29,29,30,30,31,31,32,32,36,36],"right_children":[2,4,6,8,10,12,-1,14,16,18,20,22,24,26,28,-1,-1,-1,-1,30,32,34,-1,-1,36,38,40,-1,42,44,46,48,50,-1,-1,-1,52,-1,-1,-1,-1,-1,-1,-1,-1,-1,-1,-1,-1,-1,-1,-1,-1],"split_conditions":[7.7E0,3.48E1,8.430583E1,2.46E0,3.69E1,3.19E1,8.631664E-3,7.41E0,6.78E0,2.05E0,3.61E0,8.39E0,9.5E-1,7.14E0,7.47E0,-1.4207721E-2,9.588182E-5,-1.5634114E-2,-6.3148735E-4,8.648649E1,2.26E0,6.404887E1,-1.1851033E-2,2.3801564E-3,2.95E0,6.4E0,1.05E0,-1.7044703E-2,1.32E0,7.2916664E1,1.63E0,4.4E0,5.6E0,1.5716083E-2,-2.1781242E-3,-1.778561E-2,3.67E0,1.523494E-2,-5.8759475E-4,7.4623465E-3,1.9966116E-2,1.5298862E-2,-4.2310837E-3,-1.1448557E-3,4.8096846E-3,-1.068996E-2,2.7637852E-2,-8.661553E-3,6.2128236E-3,2.3605268E-2,-1.0701764E-3,4.0774015E-3,-1.0219586E-2],"split_indices":[0,3,9,2,3,3,0,0,0,2,2,1,1,0,0,0,0,0,0,9,1,9,0,0,1,0,2,0,2,9,2,2,0,0,0,0,1,0,0,0,0,0,0,0,0,0,0,0,0,0,0,0,0],"split_type":[0,0,0,0,0,0,0,0,0,0,0,0,0,0,0,0,0,0,0,0,0,0,0,0,0,0,0,0,0,0,0,0,0,0,0,0,0,0,0,0,0,0,0,0,0,0,0,0,0,0,0,0,0],"sum_hessian":[3.76E2,3.43E2,3.3E1,4.7E1,2.96E2,3.1E1,2E0,4.3E1,4E0,1.1E1,2.85E2,7E0,2.4E1,3.4E1,9E0,2E0,2E0,9E0,2E0,2.71E2,1.4E1,4E0,3E0,2E0,2.2E1,2.2E1,1.2E1,2E0,7E0,2.42E2,2.9E1,5E0,9E0,2E0,2E0,5E0,1.7E1,8E0,1.4E1,2E0,1E1,3E0,4E0,1.8E2,6.2E1,2.6E1,3E0,3E0,2E0,6E0,3E0,2E0,1.5E1],"tree_param":{"num_deleted":"0","num_feature":"10","num_nodes":"53","size_leaf_vector":"1"}},{"base_weights":[-2.2963408E-2,-2.7216557E-1,-3.4506281E-3,5.6289233E-2,-5.3868204E-1,-2.721436E-2,4.0696806E-1,-1.796223E-2,3.126724E-1,-2.1170368E-2,-3.4894198E-1,1.3978522E-1,-5.7045057E-2,7.7747655E-1,1.2604836E-1,4.686988E-1,-6.2286616E-3,-1.3503745E-2,1.03961225E-4,4.0557015E-1,2.781428E-3,2.3801238E-3,-2.379388E-1,2.634092E-2,9.516284E-3,-2.1595164E-1,5.040403E-1,5.3978246E-3,1.8179283E-2,5.586497E-1,3.1815957E-2,-7.688245E-2,1.4406253E-2,-7.4395694E-2,2.4470417E-1,-3.2713172E-1,